const float conv1_weight[16][96][3][3] = {
   {{{1.3027018, 1.1506121, 0.26884058},
     {0.7432567, -0.84303814, -1.3030217},
     {1.3060037, 0.585483, 0.9048325}},
    {{1.3036301, 1.3031713, 1.3055351},
     {0.56141585, 0.07077285, -0.76479703},
     {1.3021967, 0.4051414, 0.29647404}},
    {{0.8592452, 1.3011253, 1.2167292},
     {-0.57389617, 0.013509021, -0.2487858},
     {0.019372303, -1.2437696, -0.6396498}},
    {{0.716455, 1.3038324, 1.2592046},
     {-0.3391597, 0.3075261, -0.12325881},
     {1.3052336, 0.116126105, -0.042655595}},
    {{0.49903786, 1.3032912, 1.3036247},
     {-0.6748983, -0.29422647, -0.9590096},
     {1.0857009, 0.055631418, 0.3389189}},
    {{-0.0033888605, 1.3046368, 1.3024606},
     {2.4127456e-05, 0.5061867, -0.09314845},
     {1.3036904, -0.088341095, 0.2167797}},
    {{0.5642017, 1.3015367, 1.3028702},
     {-0.041159827, 0.63479745, -0.31039497},
     {0.35210696, -0.018981671, 0.0067197774}},
    {{0.0154909035, 1.304847, 1.1055118},
     {0.21397753, 0.84500116, -0.2075774},
     {0.17619428, -0.004937206, -0.17151442}},
    {{-0.00896994, 1.3051734, 1.2422497},
     {-0.20070921, 0.61689293, -0.62845874},
     {0.5288643, 0.6199279, 0.049727872}},
    {{-0.08809747, 1.3023021, 0.6944473},
     {7.648327e-07, 1.0081532, 0.041524302},
     {0.9590254, -0.10460821, 0.4096622}},
    {{0.044240758, 1.3041056, 0.01816885},
     {0.039827805, 0.93292636, -0.13141152},
     {0.7633007, 0.4638396, 0.4735059}},
    {{-0.0053460514, 1.2658011, -0.18160479},
     {1.1968808e-08, 1.2213508, -0.014139223},
     {0.010614994, -0.20617273, 0.0065195593}},
    {{0.33619952, 1.3019292, 0.110445514},
     {-0.047547124, 0.8319695, -0.5156909},
     {0.5490464, -0.009596539, 0.0008840408}},
    {{0.5503581, 1.3023211, 0.11139811},
     {-0.1772482, 0.921844, -0.015234128},
     {0.0038378353, 0.03779597, 0.0056812074}},
    {{-0.09351572, 1.303809, 0.6980524},
     {-0.056204125, 1.0087886, -0.0014985948},
     {0.039580483, -0.008334888, 0.16595344}},
    {{0.3029908, 1.3003476, 0.42230457},
     {-0.18520553, 0.63138354, 0.0002897117},
     {0.025638163, 3.6769967e-07, 0.057259742}},
    {{0.30403575, 1.3088379, 0.24508272},
     {-0.093000956, 1.023444, -0.39068907},
     {0.018213507, 0.18456173, 0.20127021}},
    {{-0.0064144763, 1.3012948, 0.47750518},
     {-0.040857974, 1.0490324, 0.18166439},
     {0.13259515, -0.07682888, 0.002624949}},
    {{-0.007725544, 1.142511, 0.5075364},
     {0.00029570353, 0.25527224, -0.19760272},
     {0.91173863, 1.1327618, 0.24809638}},
    {{0.19772592, 1.3010261, 1.3017057},
     {-0.17961058, 0.4036968, 0.19166012},
     {0.18641151, -0.0076417997, 0.002212547}},
    {{-0.014980085, 0.78201693, 0.702864},
     {-0.03629298, 0.72496825, -0.0007193131},
     {-0.216639, 0.78804713, 0.15855621}},
    {{0.049924158, 1.3037695, 1.0855165},
     {0.010603452, 1.0605464, -0.26836556},
     {-0.080213234, 0.27276728, -0.07300757}},
    {{-0.24101245, 1.3044555, 0.7687889},
     {-0.16893516, 0.9363528, -0.8730497},
     {0.07038486, 0.51951414, 0.048815094}},
    {{-0.07557048, 1.3026835, 1.1937413},
     {-0.16962105, 0.8496402, -0.4392926},
     {0.06389195, -0.23652145, -0.16109021}},
    {{0.6645659, 1.3030114, 1.3019526},
     {-0.09174466, 1.132824, 0.34585547},
     {0.53253263, 0.32609415, -0.18264936}},
    {{0.27746525, 1.3040326, 1.3040051},
     {0.2699748, 1.1647052, 0.1428412},
     {0.68857044, 0.3010732, 0.033886008}},
    {{-0.0071727647, 1.3021976, 1.3034918},
     {0.14332984, 1.3035934, 0.7256848},
     {0.102534145, 0.54628277, 0.3725579}},
    {{0.22073616, 1.3029335, 1.304777},
     {-0.12825191, 0.8086536, 0.3086321},
     {0.98585254, 0.20869403, 0.11492542}},
    {{0.75498563, 1.3007162, 1.3057553},
     {-0.12013935, 0.65356785, 0.26127917},
     {-0.5350601, -1.3001925, -0.94364566}},
    {{1.302762, 1.3019401, 1.3019792},
     {-0.8991388, 0.44230872, -0.3711131},
     {0.77829176, -0.025889993, 0.04654282}},
    {{1.3033701, 1.3022567, 1.3016926},
     {-0.65449524, 0.06770513, 0.09938658},
     {0.37991828, -0.32293314, -0.570551}},
    {{0.59951466, 1.3028457, 0.7432007},
     {1.311412, 0.57216144, 0.006517246},
     {0.8998753, -0.0213889, -0.2622392}},
    {{1.3004351, 0.8679105, 0.51827544},
     {-0.21281986, -1.3038987, -1.3017817},
     {1.2211285, -0.74708384, 0.22098504}},
    {{1.3016862, 1.3002564, 1.3058472},
     {-1.1122726, -1.3022889, -1.3047559},
     {-0.8940583, -1.3023361, -1.3043544}},
    {{0.023598371, 0.34129438, 0.60000974},
     {-1.3047161, -1.3021955, -1.3029652},
     {-1.3050913, -1.3064269, -1.3024108}},
    {{0.0001799351, 0.83559304, 0.98161495},
     {-1.3037277, -1.3031973, -1.3013853},
     {-1.304144, -1.3013145, -1.304628}},
    {{-1.3023466, 0.04054194, 0.0002819496},
     {-1.3030988, -1.3060113, -1.3013618},
     {-1.3042257, -1.3023783, -1.3045859}},
    {{-1.3018947, -0.891557, 0.11335384},
     {-1.3051283, -1.3049581, -1.3070089},
     {-1.3021724, -1.3037689, -1.3034565}},
    {{-1.3030224, 0.12932469, 0.71496576},
     {-1.303671, -1.303465, -1.3043132},
     {-1.3022165, -1.3021414, -1.3038454}},
    {{-1.2868525, -0.4735739, 0.06728832},
     {-1.3039635, -1.3050267, -1.3032273},
     {-0.88670117, -1.3010318, -1.0102874}},
    {{-1.2177945, -0.9599453, 0.018854486},
     {-1.3023473, -1.3019205, -1.3074815},
     {-1.3026152, -1.3018047, -0.5467188}},
    {{-0.71987283, -0.0022811391, 0.24316998},
     {-1.3013059, -1.3026335, -1.3008232},
     {-1.301451, -1.3037084, -0.4151158}},
    {{-0.7414821, -0.50788057, 0.14182217},
     {-1.3008189, -1.3014724, -1.3034216},
     {-0.42418957, -1.3030534, 0.0006777187}},
    {{-1.1523204, -0.20915754, -0.0058457498},
     {-1.3039699, -1.304036, -1.303004},
     {-0.52559865, -1.3023044, -0.044719644}},
    {{-1.3019214, -0.46461847, 0.33501646},
     {-1.3005799, -1.3023647, -1.3019108},
     {0.12869129, -1.30225, -0.11680876}},
    {{-1.3010064, -0.5829794, -0.17757466},
     {-1.3020151, -1.303244, -1.3066924},
     {-0.0028797248, -1.1205469, 0.45727953}},
    {{-0.94612366, 0.004395361, 0.18064818},
     {-1.3016481, -1.304376, -1.303685},
     {-0.5524027, -1.0019262, 0.023935145}},
    {{-0.63233435, 0.077989474, -0.013853563},
     {-1.3030211, -1.3025409, -1.3032607},
     {-0.47276384, -1.2368022, -0.21067968}},
    {{-0.32417515, 0.08444447, 0.3707649},
     {-1.0015261, -1.0155454, -0.18688777},
     {-0.77934057, -0.93577546, -0.22448498}},
    {{-0.6425537, -0.6236393, 0.13722005},
     {-1.3018144, -1.2096922, -0.33818758},
     {-0.4120541, -1.0659764, 0.017619217}},
    {{-0.03974088, -0.043248083, -0.0022934182},
     {-1.3040733, -0.96757513, -0.9462438},
     {-0.5622487, -1.1652191e-06, -0.39272436}},
    {{-0.43500647, -0.12814689, 0.2703727},
     {-1.2405044, -0.8543737, -0.69654423},
     {-0.16351034, 0.31180948, 0.07841121}},
    {{-0.21196648, 0.20919487, 0.23637588},
     {-0.18985838, -0.0068279984, -0.39980677},
     {-0.43810964, -0.8047544, -0.6887682}},
    {{-0.23238663, 0.057568826, 0.06967855},
     {-0.028484663, -0.35134235, -0.43295828},
     {0.00017617298, -0.07382366, 0.0017595972}},
    {{-0.14050226, 0.099548385, 0.35712403},
     {-0.4928881, -0.98659486, -0.3430147},
     {-0.031142242, -0.23533289, -0.03643232}},
    {{-0.46313694, -0.4207514, -0.06592653},
     {-0.9480724, -1.0396625, -0.64184445},
     {0.08170991, -0.16472773, 0.05294915}},
    {{-0.20967025, 0.8075944, 0.576461},
     {-1.3024337, -0.6716818, -0.8279563},
     {-0.0001069866, -0.8002586, -0.42566246}},
    {{-0.0057541765, 1.1842823, 0.48345768},
     {-0.78704745, -0.6602329, -0.75192964},
     {0.038970932, -1.3076409, -0.14374676}},
    {{-0.0181419, 0.69925153, -0.00028756727},
     {-1.1293416, -0.68104225, -1.3028458},
     {-0.59073186, -1.3024802, -1.2232687}},
    {{-0.31712237, 1.0529461, 0.44104165},
     {-0.4148567, -0.83353245, -0.94276065},
     {-0.18030716, -1.3020974, -1.3027982}},
    {{0.05907785, 1.3019792, 1.2115295},
     {-1.3046815, -0.47890145, -1.113324},
     {-0.26073152, -1.3020297, -1.3008263}},
    {{0.33013108, 1.3028004, 1.302777},
     {-1.3024883, -1.3034971, -1.3012564},
     {-0.96610457, -1.3031448, -1.3049963}},
    {{0.034235526, 1.3091018, 1.3035843},
     {-1.3055987, -1.3028198, -1.3020647},
     {-1.0781677, -1.3012497, -1.3031958}},
    {{-0.94341534, 0.44540492, 0.19684353},
     {0.13412958, -0.82478493, -1.3027936},
     {-0.71006787, -1.3035982, -1.3014693}},
    {{1.3027403, 1.3019042, 1.302113},
     {1.024546, -0.955711, -0.915974},
     {1.3024315, -0.00044981577, 0.8312183}},
    {{1.3042202, 1.3072021, 1.2285497},
     {0.46664527, -0.9527213, -0.8843498},
     {0.7312496, -1.3041697, -0.50833213}},
    {{1.3022866, 1.3012347, 1.3063266},
     {0.69018537, 0.008084928, -0.55935144},
     {1.3036456, -0.75970036, -1.0278826e-06}},
    {{0.55576026, 1.3030041, 1.3047203},
     {-0.14544746, -0.7481995, -0.9590575},
     {0.32799992, -1.3020061, -0.33182597}},
    {{0.5106251, 0.8633106, 0.74514836},
     {-0.121062316, -0.5582308, -1.040752},
     {-2.7934788e-05, -0.59288937, 0.24218631}},
    {{1.0504472, 0.25649622, 0.47956055},
     {0.07206667, -0.34706578, -0.9120159},
     {0.6331762, 0.61058336, 1.0750619}},
    {{0.6964002, 0.5611664, 0.41737616},
     {-0.2991327, -0.87432384, -1.3009796},
     {0.6291358, 0.33821937, 0.8252598}},
    {{0.52981704, 1.3016453, 1.0937135},
     {-0.00011125377, -0.23627473, -1.2468028},
     {0.124667086, -0.17232077, 0.09647815}},
    {{0.033788975, 1.0754452, 0.81975114},
     {-0.06929829, 0.1282435, -0.80091834},
     {0.019469528, -0.07768357, 0.05001493}},
    {{0.07740499, 1.0058395, 0.8308535},
     {-0.0654877, 0.46132, 0.0004780694},
     {0.025550943, 0.06106268, 0.29024422}},
    {{0.12752962, 0.9685172, 0.15552318},
     {-0.0853797, -2.3143888e-05, -1.0885516},
     {-0.15576477, 0.60138893, -0.59781104}},
    {{0.7150949, 1.1833136, 0.2579479},
     {0.15569688, 0.01763885, -0.7923202},
     {1.1906635, 0.007664223, -8.8377993e-07}},
    {{0.06863339, 0.41700616, -0.087768145},
     {0.02609004, -0.3136221, -0.62703514},
     {0.5497525, -0.27370188, -0.019696208}},
    {{0.54202974, 1.3028508, 0.030700976},
     {0.07514079, 0.082729355, -0.69675285},
     {0.09263314, -0.5675529, 0.233253}},
    {{0.01503487, 1.2444454, 0.001644863},
     {0.07161786, 0.12372636, -1.126655},
     {-0.07921338, -0.78097934, -0.3951221}},
    {{-3.0692092e-05, 0.12707084, -0.0034299272},
     {0.022482624, -0.23861304, -1.1676319},
     {0.88826066, 0.5296383, 0.77176255}},
    {{0.49465683, 1.0320467, 0.34069106},
     {-0.0091063315, 0.54427207, -0.021571115},
     {0.55237895, 0.10416293, 0.0738844}},
    {{0.043948893, 0.13655345, -0.23022205},
     {0.13337106, -0.15210924, -0.115354404},
     {0.65255696, 0.14200214, 0.116527915}},
    {{-0.020382198, 0.06442265, -0.1593212},
     {-0.039124794, -0.4109009, -0.27721494},
     {0.54500186, -0.18292299, -0.28554615}},
    {{0.014951376, 0.9495368, 0.5800686},
     {-0.3361528, -0.052021928, -9.414892e-06},
     {-0.04456298, 0.034179226, -0.030463751}},
    {{0.17900209, 0.4996522, 0.24594212},
     {-0.5411356, -0.20146695, -0.43446705},
     {0.2929034, -0.39291164, -1.0282685}},
    {{0.2480651, 0.4469046, -0.000530128},
     {0.32478005, -0.113882124, 0.2579585},
     {1.0662044, -0.95285594, -0.3350283}},
    {{0.6320332, 0.86947364, 0.012171966},
     {0.12160139, 0.0840341, -0.31868455},
     {0.7956149, -0.026049146, 0.2948067}},
    {{1.1768975, 0.991, 0.63323796},
     {0.16210516, 0.23625399, 0.028932966},
     {0.36832717, -0.5139403, 0.0013152676}},
    {{0.3684274, 0.9354654, 0.36453435},
     {-0.28134945, -0.19398135, -0.6566108},
     {0.09519903, -1.1001353, -1.0728576}},
    {{-0.20083067, 0.5284506, -0.28494903},
     {-0.5571645, -0.74475366, -0.8855833},
     {0.46733877, -0.9156846, -0.2361545}},
    {{-0.47515732, 0.9908332, -0.11313308},
     {-0.5456312, 0.049486037, -0.5584219},
     {-0.04254737, -1.0492953, -0.50603575}},
    {{0.13729627, 1.3009202, 0.6462978},
     {-0.187915, -0.2876533, -0.38984308},
     {0.2812866, -1.3042364, -0.89660877}},
    {{1.067065, 1.304095, 1.3055015},
     {0.0005104017, -1.1744835, -0.49083802},
     {0.78090686, -1.3030955, -1.3047925}},
    {{1.0088943, 1.3053664, 1.3005997},
     {-1.303281, -1.3021135, -1.3003956},
     {0.27974468, -1.3041656, -1.3034893}},
    {{1.3017744, 1.3019235, 1.302489},
     {0.3701705, -0.32523274, -0.10186535},
     {0.23155877, -1.3041893, -1.3027866}},
    {{0.65970343, 1.3031646, 0.81709737},
     {1.3035228, 1.3039256, 1.2946271},
     {0.973493, -0.8519415, -1.0419668}}},
   {{{1.305331, 1.3017262, 1.3004658},
     {-1.303695, -1.3050938, 0.8303295},
     {1.3051101, 1.3052019, 1.3012096}},
    {{-0.3044249, 0.9070689, 0.28202385},
     {-1.3044958, -1.3046141, -1.0038289},
     {1.3016052, 0.90779054, 1.3025283}},
    {{-0.5980383, 1.3010317, 0.053987835},
     {-1.3036671, -1.3038117, -1.3020421},
     {0.053465467, 0.93612725, -0.030395783}},
    {{-0.7448017, 1.3033539, 0.07851505},
     {-1.3023412, -1.3028845, -1.302193},
     {0.3009049, -0.011807017, 0.0023298585}},
    {{0.0386841, 0.9424918, 0.16910067},
     {-1.3032031, -1.3015785, -1.302702},
     {0.46195036, 1.3054937, 1.1316375}},
    {{-0.36791176, 1.3035307, 0.07357576},
     {-1.306855, -1.3025097, -1.3034306},
     {0.006946879, 0.52124417, 0.23146136}},
    {{-0.4836547, 1.3041508, 0.012503689},
     {-1.3037775, -1.3045669, -1.3075117},
     {7.00714e-06, 0.26916617, -1.0679327}},
    {{5.775324e-05, -0.046587184, -0.66869617},
     {-0.013259238, -1.3031143, -1.3049635},
     {0.133323, 0.38880306, -0.0054360805}},
    {{6.359924e-05, 0.032081176, -0.035753384},
     {-0.20964481, -1.3055769, -1.3056365},
     {0.01418661, 0.07869076, 0.4091502}},
    {{-0.18138981, 0.28027993, 0.0015116248},
     {-0.31605703, -1.3037769, -0.467445},
     {0.16047734, 0.438843, -3.9328775e-06}},
    {{0.68365264, 0.5021361, 0.4729826},
     {-0.07519455, -1.3030145, -0.23650302},
     {1.3044736, 0.25263458, 0.79036516}},
    {{-0.015374665, 1.2824117, -2.669642e-06},
     {-0.1138026, -1.304623, -0.037340987},
     {0.7408596, -0.00023684055, 0.117811}},
    {{-0.54246914, -1.0490895e-05, -0.10463789},
     {-0.12694305, -1.3020144, -0.063739724},
     {0.61013776, 0.5799612, 0.48119646}},
    {{-0.04859205, 0.5118269, 0.07518419},
     {-1.1094899, -1.3035735, -0.5032961},
     {-0.001483064, 0.7549183, -0.16954698}},
    {{-0.49451274, 0.12077046, -0.82063586},
     {-0.68354285, -1.3027515, -0.37069815},
     {0.5656077, 1.1345677, 2.0603714e-07}},
    {{0.011373235, 0.28093812, 1.0078545e-06},
     {-0.0045274906, -1.3012424, -0.48748755},
     {0.58078486, 0.015368287, 0.03982862}},
    {{-0.11192716, -0.010339493, -0.07271385},
     {-0.00022927337, -1.3006282, -1.0625778},
     {0.038119905, 0.6456579, -0.5113338}},
    {{0.77974594, 0.0042910767, 0.09657636},
     {-0.018077597, -1.3036429, -0.12546556},
     {1.3030335, 1.3007864, 0.02714948}},
    {{0.46720344, 1.1527174, -0.00059196947},
     {-0.8185143, -1.3022661, -0.69456005},
     {1.3066199, 1.3015436, -0.12688862}},
    {{0.00010318549, 0.21646057, 0.11065554},
     {0.0059349937, -1.3055762, -0.58209455},
     {0.66898984, 1.3041059, 0.19879232}},
    {{0.0013900192, 1.15520145e-07, 0.21473181},
     {0.011454112, -1.3049928, -0.24914946},
     {0.023220344, -0.0005891414, -0.813761}},
    {{0.02124112, 0.4343255, -5.61251e-05},
     {-0.0069741453, -1.302068, 0.06130165},
     {-0.014839091, 0.15634333, -0.024176167}},
    {{0.0024630155, 1.2997879, 0.014839807},
     {-0.102956705, -1.3046106, -0.35928926},
     {0.5398243, 0.6342369, 0.40570897}},
    {{-2.4741344e-06, 1.3029021, -0.16577277},
     {-1.1938276, -1.3023331, -0.75049365},
     {0.036476478, 1.1334745, -0.038267817}},
    {{-0.19208895, 1.302784, 0.28911823},
     {-1.1488546, -1.3006628, -1.3011049},
     {-0.054930214, 0.049685054, -0.22539514}},
    {{0.10009205, 1.3022465, 0.10919589},
     {-0.6449637, -1.3018792, -1.200326},
     {-0.0025780813, 1.3050811, 0.6636684}},
    {{-0.002707065, 1.3064301, -0.005591942},
     {-0.9861774, -1.3040776, -0.4575853},
     {-0.05674484, 0.91818476, 0.040809177}},
    {{0.000718164, 1.3026733, 0.13846786},
     {-1.3070372, -1.3043314, -1.3042365},
     {0.6197592, 1.3031185, 0.46139184}},
    {{1.3033322, 1.3022571, 1.3032566},
     {-1.3022432, -1.3009856, -1.3039678},
     {-0.01808049, 0.091618404, -0.15344115}},
    {{0.007309917, 1.3030353, -0.042042095},
     {-1.304022, -1.3041298, -1.3065429},
     {-0.07658413, 1.303626, -0.6617309}},
    {{-0.14421166, 0.07836201, -0.23958254},
     {-1.3036416, -1.3024615, -1.305262},
     {0.7906965, 1.1428065, 0.014475064}},
    {{-1.3039459, -1.3010415, -0.77549225},
     {-0.19843708, -0.8760014, -0.44200704},
     {-1.3028623, -0.77246505, -1.3061315}},
    {{1.3004037, 1.300598, 1.3033488},
     {-1.3058801, -1.3027476, 0.011363786},
     {0.27194312, 1.3053254, 1.3037549}},
    {{-0.08382267, 1.0645669, 1.1714569},
     {-1.3015586, -1.3013575, -1.3008481},
     {-0.41448566, 0.8645111, 1.3039938}},
    {{0.83220595, 1.3034333, 1.3032004},
     {-1.3033744, -1.30142, -1.3051912},
     {0.1826569, 1.3032829, 1.3040442}},
    {{0.05359022, 1.1567936, 1.1657299},
     {-1.3069346, -1.3027084, -0.2967743},
     {-0.14265157, 0.17220835, 1.3011127}},
    {{-0.046744607, 1.3016498, -0.018546034},
     {-1.3021299, -1.3020301, -0.6947909},
     {0.0034509634, 1.3049746, 1.301702}},
    {{2.585607e-07, 1.3044901, 0.9899139},
     {-1.3018287, -1.3036429, 0.0018295726},
     {-1.3050896, 0.09050731, 0.13861337}},
    {{-0.030210346, 0.7550128, 0.7615561},
     {-1.3007665, -1.3022803, -1.0052766},
     {-0.3008298, 0.36327967, 0.2880774}},
    {{0.0018537658, -0.4751163, 0.07138077},
     {-1.0137419, -1.3031272, -0.6021743},
     {-0.049922, 0.7406442, 8.4288195e-07}},
    {{-0.34117982, 0.43577078, 0.5557878},
     {-0.08819293, -1.3017129, 0.15896274},
     {-0.4775935, 0.53287995, 0.64570785}},
    {{9.836716e-06, 0.29713473, 0.23565736},
     {-1.3028023, -1.3024483, -0.00091298023},
     {-0.09052671, 1.3021158, 0.6256656}},
    {{-0.01408643, 0.20852776, 0.30074278},
     {-1.3028262, -1.3021724, -0.22987628},
     {-0.2045992, 0.18510002, 0.7595036}},
    {{0.32611698, 0.5232442, 0.3155185},
     {-0.21937566, -1.3038865, -0.31897143},
     {-0.40153933, 1.1364173, 0.13562764}},
    {{-0.028433397, 0.98124474, 0.48634487},
     {-0.32784387, -1.3026948, 0.055051193},
     {-1.3040358, 1.3042152, 0.014126618}},
    {{-0.790522, -0.0039806888, 0.49161264},
     {0.027062995, -1.0998777, 0.6632071},
     {-0.65286326, 0.45546743, 0.9865958}},
    {{-0.16183186, 1.1042649, 0.5812148},
     {-1.3033445, -1.3022302, -0.099995404},
     {0.29685748, 1.300938, 1.3055006}},
    {{-0.7917741, 1.3089471, 0.6825601},
     {-1.302298, -1.3043456, 0.7364839},
     {-0.093565315, 1.3057215, 0.5693446}},
    {{-0.9989888, 0.24712501, 0.5794465},
     {-1.3028028, -1.3045495, -0.4004866},
     {4.3080447e-05, 0.06709111, 0.08927048}},
    {{-1.3043578, 0.95415604, 0.01743021},
     {-1.3037378, -1.3037211, 0.13672401},
     {-0.21177962, 0.6431903, 0.6469047}},
    {{-1.028877, 1.3022658, 0.23124512},
     {-1.3020633, -1.3026806, 0.20719942},
     {-0.019238226, 0.6233718, 0.3923819}},
    {{-1.3056661, -0.00013363714, -0.20512868},
     {-1.3028289, -1.3061525, -0.5925364},
     {0.005602117, 0.39786378, 1.3020883}},
    {{-0.2344823, 0.66197944, 1.2053448},
     {-1.3033129, -1.3048393, -0.111218825},
     {-1.2081548, 0.56120664, 0.8939851}},
    {{-0.25918043, -0.11455305, 0.795889},
     {-1.0517831, -1.3039656, 0.012108029},
     {-0.6503383, 1.3046106, 0.9176393}},
    {{0.5170306, -0.027030729, 1.3016413},
     {-1.3035449, -1.3016368, -0.00019812761},
     {-0.43395227, 1.2369385, 1.306505}},
    {{-0.019400295, -0.0024437844, 2.0556921e-07},
     {-1.3056839, -1.3002473, -0.16692182},
     {0.16181442, 1.3016587, 1.3022171}},
    {{-0.054811098, 0.9588871, 0.11896988},
     {-1.3033118, -1.3023976, -1.0034143},
     {0.2168126, 0.46264562, 1.0030733}},
    {{0.06773442, 1.1070099, 0.32336456},
     {-1.3007029, -1.3018751, -0.8559661},
     {-0.41753536, -0.0776535, 0.96497315}},
    {{-0.45900777, 1.134388, 0.07105587},
     {-0.1936105, -1.3018823, -0.10953803},
     {0.33921903, 0.052739188, 0.9647101}},
    {{-0.37834707, 0.77421445, -0.0719609},
     {-0.07334666, -1.3019102, -0.5448289},
     {0.18978879, -0.28468314, 0.41269183}},
    {{-0.10365157, 1.3013649, 0.38771385},
     {-0.42198342, -1.3066224, 0.13060093},
     {-0.004791768, 0.4433063, 0.044516724}},
    {{-0.083841436, 1.3025893, 0.09708984},
     {-0.79004836, -1.3023819, -0.46315914},
     {0.5125821, 0.62271625, 0.48341557}},
    {{1.3002812, 1.3021523, 0.85832566},
     {-1.304519, -1.302044, -0.9297409},
     {0.06328129, 0.5606107, -0.028278317}},
    {{0.02316884, 1.0654154, -0.37521034},
     {0.6509512, -0.56706625, 0.13412294},
     {-1.3029734, -1.2383999, -0.29161224}},
    {{0.6873867, 1.1249913, 0.6589436},
     {-1.3064693, -1.3043209, -0.54089534},
     {1.3042942, 1.3021568, 1.3049159}},
    {{0.9492788, -0.017563181, 0.003624854},
     {-1.30169, -1.3014616, -1.3083417},
     {1.3013433, 1.3057135, 1.3024398}},
    {{0.895155, -1.2887928, -1.3021476},
     {-0.70586157, -1.3033358, -1.3042566},
     {1.3015953, 1.3009306, 0.5478488}},
    {{1.301844, 1.3033562, -0.5766361},
     {-0.4937651, -1.3046279, -1.303584},
     {0.70847404, 0.18953009, 0.4308498}},
    {{0.56686187, 0.010389063, -1.3029678},
     {0.12676302, -1.3019465, -1.3020895},
     {0.64013165, 0.69986737, -0.04664026}},
    {{0.044507276, 0.081456736, -0.6624467},
     {3.765114e-05, -1.3026794, -1.3032775},
     {0.88893384, 1.3034898, -0.29552773}},
    {{0.34728032, 0.3597372, -1.024954},
     {-2.418753e-05, -1.3028511, -1.3022201},
     {1.1970274, 1.1840852, -0.24349949}},
    {{1.3034954, 1.3015369, -4.386574e-07},
     {-0.00015593265, -1.3083278, -1.3027867},
     {0.08808398, 1.3027014, -0.030116804}},
    {{1.3030661, 0.63981175, -0.41256583},
     {-0.09625356, -1.3045437, -1.3028727},
     {0.12404425, 0.4494818, -0.039730348}},
    {{0.076175846, 0.019132292, -0.4555401},
     {0.013988589, -1.301449, -0.46136832},
     {0.49482727, 0.16253814, -0.12924989}},
    {{0.043482125, 0.53873765, -0.84339476},
     {-1.4775129e-06, -1.302393, -1.2071948},
     {0.78543746, 1.1346713, 0.000102636506}},
    {{0.514055, -0.002736253, -0.65166026},
     {-0.03949298, -1.303632, -1.272952},
     {0.25643504, 6.62872e-05, -3.3329402e-06}},
    {{0.30231884, -4.747187e-06, -0.0629355},
     {0.8682387, -1.1956611, -0.71927893},
     {-0.10625023, 1.3024497, -0.06502594}},
    {{0.68015486, 0.00076696306, 0.0003038354},
     {-0.026617518, -1.3052177, -1.1738935},
     {0.27639106, 1.3033172, -0.12803563}},
    {{0.6730589, 0.3401987, -0.0101618115},
     {0.01545718, -1.3013918, -1.0378574},
     {0.078927204, 1.301583, -0.57729906}},
    {{1.1678655, 1.3030205, 0.03170557},
     {0.23545873, -1.3031743, -0.751167},
     {0.5825512, 1.3008338, 0.00091087114}},
    {{0.45168734, 0.14299057, -0.014353717},
     {-0.0348713, -1.3072507, -1.3027514},
     {-0.00033887738, 0.33777586, -0.0008880165}},
    {{0.29927713, 0.093450196, -0.16408466},
     {-0.011710441, -1.3068515, -0.8754254},
     {1.2654184, 0.23747326, 1.8544688e-05}},
    {{-3.6710821e-06, 0.6654906, -0.112763904},
     {0.2084648, -1.3028586, -0.92417836},
     {1.1266849, -0.027831841, 0.78660285}},
    {{0.24396352, 1.189771, -0.070431404},
     {-0.11172865, -1.3021219, -1.3033427},
     {0.24678896, 0.12177806, 0.4095446}},
    {{0.96183014, 0.9197493, -0.0057862643},
     {-0.5371581, -1.3024644, -1.3046627},
     {0.03139128, 0.20005295, -0.013330734}},
    {{1.2846367, 1.3028208, 0.6682803},
     {-0.28589466, -1.303516, -0.097718894},
     {0.0008657665, -0.00065571937, -0.7301101}},
    {{0.43668666, 1.3015182, 0.019090176},
     {0.054391988, -1.3041713, -0.11113659},
     {0.21557468, 1.1572957, -0.000105353254}},
    {{0.23329838, 1.3037115, -0.07397817},
     {0.039805945, -1.3020068, 0.018089226},
     {-0.019133912, 0.58845514, -0.24198854}},
    {{-0.70219785, 1.30522, -1.3011699},
     {0.027654788, -1.3026886, -0.13355304},
     {0.20372307, -0.027168673, 0.09926776}},
    {{0.1328107, 1.3034842, -0.5131257},
     {-0.108261205, -1.3066037, -0.34439546},
     {1.0740322, 1.3029109, 1.3031396}},
    {{0.23646243, 1.3003718, -0.84216964},
     {0.33555105, -1.3024408, 2.5926827e-05},
     {-0.009923353, 0.8407777, 9.18066e-05}},
    {{1.1614076, 1.3026994, 3.754455e-06},
     {-0.016809883, -1.3055445, 0.11882172},
     {0.39708194, 1.3026594, 0.015632715}},
    {{0.74379164, 0.9896038, -0.20308264},
     {-0.0009998166, -1.3017246, -0.6233744},
     {0.51859325, 0.7531043, -0.662772}},
    {{1.3038568, 1.3056878, 0.0342413},
     {-1.3026614, -1.3019358, -1.3053838},
     {1.3041761, 1.3019485, 1.3048347}},
    {{1.3010347, 1.3042443, 1.2812779},
     {-0.36326522, -1.3020517, -0.2173828},
     {1.3032342, 0.6046614, -1.0027525}},
    {{0.5383286, 0.66688573, -0.4574792},
     {1.3022645, 1.3029963, 1.1689482},
     {-1.3038895, -1.3028116, -1.3039825}}},
   {{{1.3020328, 0.5142507, 0.116262585},
     {-0.079151586, -1.3016833, -1.3038976},
     {0.8120316, -0.60922784, -1.301658}},
    {{0.92101353, -0.08475919, -0.00036415944},
     {0.41985688, -1.0707147, -0.21768095},
     {1.3022903, 0.91137254, 0.14555003}},
    {{-0.7732194, -1.3039985, -0.44961673},
     {-1.0288227, -1.3050921, -0.61923754},
     {1.3047248, 1.2286966, 0.7487403}},
    {{0.0033501429, -1.1513678, 0.07680151},
     {-0.8659474, -1.3017193, -0.7804293},
     {1.1408185, 0.5028013, 0.11920931}},
    {{-5.3784173e-05, -1.0704725, -0.8043141},
     {0.01352399, -1.2396171, -0.7947781},
     {1.3039011, 1.2002236, 0.33333576}},
    {{-0.6266397, -1.3023621, -0.27843168},
     {-0.4421669, -1.3017468, -0.00026124585},
     {1.1332529, 1.301298, 0.048948336}},
    {{0.025521578, -1.0376412, 0.01774474},
     {0.00729973, -1.2362499, -0.3803897},
     {1.3035829, 1.3034308, 0.033713415}},
    {{-0.0019420468, -1.0861535, 0.23675805},
     {-0.026966065, -1.0878652, -0.2998927},
     {1.3065048, 1.3024758, 0.18801127}},
    {{-0.11315497, -1.0633367, -0.11614347},
     {1.5850584e-06, -0.7650272, -0.13161206},
     {1.3036367, 1.3031045, -0.22946669}},
    {{-0.13509423, -0.6702563, 0.16965465},
     {-0.61611825, -1.1123157, 0.502027},
     {1.1479458, 1.3026457, -0.0073917992}},
    {{0.1803397, -0.6006069, 9.36681e-05},
     {-0.58359903, -1.3018355, 0.11878562},
     {1.1439542, 1.045876, -0.3609341}},
    {{0.5320125, -0.073707804, 0.0077141128},
     {0.002429732, -1.3043121, -0.039094117},
     {1.3022611, 1.3017491, 0.000913011}},
    {{0.36663058, -0.000695953, -0.2607454},
     {-0.07402902, -1.301305, 0.024576621},
     {1.2810491, 1.3039533, 0.05006583}},
    {{0.023154445, -0.45993352, -0.8032835},
     {-0.6193042, -1.3040156, -1.034799},
     {0.8143181, 1.2683209, -4.707595e-06}},
    {{-1.261287, -1.1849815, -0.29172087},
     {-0.9462889, -1.3025031, -0.0026064932},
     {0.65710217, 1.3039997, -0.007872269}},
    {{0.012304593, -0.78819495, 0.40761435},
     {-0.3262776, -1.264849, 0.028596217},
     {0.8364352, 1.3024652, 0.26747558}},
    {{0.2402316, -0.27737945, 0.8941449},
     {-0.35035732, -0.82376367, 0.501646},
     {1.302136, 1.300531, 0.7774865}},
    {{-0.13815837, -1.071241, -0.00013748443},
     {-0.3868558, -1.3042166, 0.11947767},
     {1.1286098, 1.3027345, 0.09398903}},
    {{0.00799268, -0.88626665, -0.013341487},
     {-0.43315506, -1.0025612, 0.013388992},
     {0.8678462, 1.2916535, -0.5010885}},
    {{-0.09997147, -1.0269817, -0.085670054},
     {-0.43301046, -0.7827658, 0.012688378},
     {1.3018669, 1.3049356, 0.42220017}},
    {{0.1259946, -0.28783435, 0.073016934},
     {-7.5196986e-05, -0.73984987, 0.10722787},
     {1.1623317, 1.3019055, 0.20472755}},
    {{-0.2518573, -0.2558332, -0.17579758},
     {-0.1944289, -0.69324255, -0.0029529633},
     {0.84688264, 0.95878166, 0.077772014}},
    {{-0.0016263858, -0.39413193, 0.0007218426},
     {0.03323789, -0.77502227, -0.09979392},
     {0.08548057, 0.20707831, 0.14948086}},
    {{-0.0063623823, -0.27214658, -0.22645412},
     {-0.2925791, -0.6201416, -0.20889816},
     {0.51758724, 0.22266395, -0.020294825}},
    {{-0.48785478, -0.6293371, 0.009351831},
     {-0.38445523, -0.8062358, 0.06708932},
     {-0.011598145, 0.19668049, 0.8560524}},
    {{0.0006129876, -0.48731732, -0.3574903},
     {-0.00013032024, -1.3018095, -0.1805778},
     {0.97188467, 0.8846024, 0.31516415}},
    {{0.59196496, -0.7057789, -0.7911357},
     {0.33496484, -1.3019687, -0.20555131},
     {1.3023154, 0.55871123, 0.7603643}},
    {{-0.10067559, -1.3041849, -0.6959307},
     {0.035984334, -1.3026087, 0.08503868},
     {1.3029574, 1.3028241, 1.068934}},
    {{-5.779411e-05, -1.3038305, -0.21551369},
     {-0.01264165, -1.3033938, 0.00012241246},
     {1.3030806, 1.3018184, 1.3025644}},
    {{-1.3005897, -1.3022337, -1.3042197},
     {-0.48218516, -1.3033513, -0.06612858},
     {1.3013264, 1.3014053, 0.89586776}},
    {{-1.0780773, -1.3074697, -1.3012657},
     {0.41976896, -0.9141338, -0.0014640867},
     {1.3040229, 1.3038626, 1.0008146}},
    {{0.40415013, -0.7897411, 0.14805381},
     {0.94602245, 0.034240883, 0.9270241},
     {1.01137, 0.49990723, -0.092921}},
    {{0.7127739, -0.8492004, -0.95405626},
     {-1.0668949, -1.3052236, -1.3022176},
     {1.144677, -0.008873973, -1.303215}},
    {{-0.48668858, -1.3021857, -1.0290844},
     {-0.45807466, -1.3016614, -0.8071121},
     {1.3015355, 1.3041188, 0.53189784}},
    {{0.11516733, -1.2305614, 0.056435175},
     {0.00012135763, -1.3065872, 0.18204053},
     {1.3012137, 1.3025107, 1.3028824}},
    {{-0.39941576, -1.3039714, -0.26068452},
     {-0.25694424, -1.3012981, -0.037830453},
     {1.3025857, 1.3039755, 0.74146694}},
    {{-0.8194891, -0.72494996, 0.019952577},
     {0.5375625, -5.979033e-08, 1.0863318},
     {1.3049761, 1.30434, 1.0214058}},
    {{-0.3230327, -0.738278, -0.2756218},
     {-0.17037913, -1.2635915, 0.123972125},
     {1.3031968, 1.3037727, 0.50347126}},
    {{-0.8187851, -1.3050258, -0.7599537},
     {-0.8645307, -1.3019203, 0.24803852},
     {1.3022242, 1.3012491, 0.7541069}},
    {{-0.6194821, -1.3047272, -0.7211679},
     {-0.2068668, -0.86855483, -0.00027560032},
     {1.3026282, 1.3027375, 0.27134907}},
    {{-0.5758389, -1.1826677, -0.30446967},
     {-0.0016344184, -0.8618273, 0.20942467},
     {1.3012551, 1.3035295, 0.41543895}},
    {{-0.23382735, -1.3055853, 0.0033117437},
     {-0.22578919, -0.6943113, 0.39242437},
     {1.3042091, 1.3061203, 0.3399856}},
    {{-0.11065228, -0.968933, -0.6986621},
     {-0.20269947, -0.7862907, 1.4331168e-07},
     {1.3047296, 1.3001063, 0.60744816}},
    {{-0.97600067, -1.0987567, -0.6696936},
     {-0.0055411207, -0.53772926, 0.0025415777},
     {1.0597647, 1.3030885, 0.035661794}},
    {{-1.0040125, -1.1053988, -0.8441843},
     {-0.071793795, -0.83594245, 5.6209083e-06},
     {1.3036005, 1.3026865, -0.014951589}},
    {{-1.3039212, -1.3010873, -0.8512968},
     {-3.686918e-08, -1.1925098, -0.06557976},
     {1.2866714, 1.303498, 0.19735682}},
    {{-0.8982925, -1.1887375, -0.9457571},
     {-0.1087774, -1.3069361, -0.049019072},
     {1.3024211, 1.3019755, 0.5280259}},
    {{-0.3665579, -1.0168718, -0.11494422},
     {0.04317962, -1.1703813, 0.07494577},
     {1.3023785, 1.3014429, 0.19861482}},
    {{-0.17534503, -1.0889552, 0.029117007},
     {0.19662876, -0.6709988, -0.083699964},
     {1.3004166, 1.3017832, -0.008210381}},
    {{-0.68122464, -1.3020574, -0.8223991},
     {-0.026346272, -1.0656853, -0.0016118188},
     {1.301543, 1.3009449, 0.232046}},
    {{-0.22660238, -0.7933805, -0.44491497},
     {-0.0004192262, -1.2287452, 3.6496252e-07},
     {1.1677366, 1.3034056, 0.5048946}},
    {{-0.4130221, -1.3032197, -1.2234991},
     {1.052938, 0.20225357, 0.003172647},
     {1.3019937, 1.3013604, 0.6464679}},
    {{-0.24705727, -0.8233037, -0.70336896},
     {-0.008803104, -0.5892422, -0.0067993617},
     {0.7692544, 0.87249064, 0.422831}},
    {{0.013114677, -0.201202, -0.02904861},
     {-0.007008314, -0.41060445, 0.28317377},
     {0.22598757, 0.36926562, 0.1447671}},
    {{0.19969693, 0.010049967, 0.51315236},
     {-0.11698178, -0.19902022, 0.01665247},
     {1.0237036, 0.38471305, 0.074273296}},
    {{-0.29941374, -0.34933266, -0.061247323},
     {-0.17276472, -0.5266322, -0.003288622},
     {0.56701654, 0.3456082, 0.055924162}},
    {{-0.0141709475, 0.017249206, 0.3584785},
     {-0.011033472, -0.77361375, 0.0736913},
     {1.3046178, 1.3064843, 0.43135536}},
    {{-0.36180303, -1.129743, -0.31046906},
     {0.14769892, -0.8056743, -0.1666142},
     {0.9612341, 0.5706912, -0.022068605}},
    {{-0.3549799, -0.5380821, 0.037371367},
     {0.6416198, -0.20898053, 0.9282376},
     {1.3014888, 1.3014829, 1.2539552}},
    {{-1.2433654, -1.2432638, -0.066553645},
     {-0.49742985, -0.99720204, -0.12138525},
     {1.166755, 1.0319817, 0.50273246}},
    {{-0.9060495, -1.3011997, -0.2226262},
     {-0.6579685, -1.3029404, 0.056643255},
     {1.3010055, 1.2374392, 0.3512148}},
    {{-0.8289081, -1.3037748, 0.09021548},
     {0.004607599, -1.0646983, 1.0197688},
     {1.3047924, 1.3012376, 0.754094}},
    {{0.0537554, -0.8013212, 1.3026148},
     {-0.2506431, -0.73592764, 1.3034612},
     {1.3007652, 1.3027396, 1.301046}},
    {{1.1985953, 0.23673142, 1.303422},
     {1.3031487, 0.51028323, 1.3024305},
     {0.6047679, 0.072727084, -0.6452547}},
    {{0.68606395, -0.37173766, -0.14209898},
     {-1.3046013, -1.301527, -1.3021345},
     {0.8290388, 0.13746805, -1.3019568}},
    {{0.14459772, -0.63079864, 0.28317156},
     {-0.24071273, -1.1477532, -0.0005515834},
     {1.3039231, 1.3013077, 1.2269703}},
    {{-1.3005389, -1.3024106, -0.9233261},
     {-1.0077599, -1.166975, 0.3383548},
     {1.3020892, 1.3009357, 1.3013283}},
    {{-1.3032357, -1.3021165, -2.3900582e-06},
     {-0.38746172, -0.79479504, 0.77762216},
     {1.3012034, 1.3013572, 1.3084961}},
    {{-0.79787695, -0.37252694, 0.17740652},
     {-0.012435327, -0.009718408, 0.77849793},
     {1.3005059, 1.3025309, 1.3039448}},
    {{-0.7858291, -0.1879693, 0.18196622},
     {-0.48875096, -0.12005216, 0.60213494},
     {1.3017099, 1.3032932, 1.3030633}},
    {{-0.83435065, -0.56581014, 0.6301323},
     {-0.36674252, -0.030602911, 1.3013033},
     {1.3022298, 1.3018593, 1.3033882}},
    {{-0.44045532, -0.44085592, 0.3878214},
     {-1.303086, -1.3015546, 0.5253671},
     {1.3028766, 1.3024209, 1.147336}},
    {{-1.3043664, -1.0511992, -0.07065231},
     {-1.3030609, -1.2256217, 0.25736693},
     {0.55430704, 1.3032209, 1.0585574}},
    {{-1.308536, -1.3029274, -0.25668794},
     {-1.2404344, -1.3036147, 0.20099731},
     {0.08447176, 0.8911726, 0.83214355}},
    {{-0.41514337, -0.099748164, 0.00592076},
     {-0.38614756, -0.14714156, 1.0400608},
     {1.2762624, 1.301406, 1.3032929}},
    {{-0.7239827, -0.41575447, 0.07823526},
     {0.0032760706, -0.46161693, 1.3015742},
     {1.3024287, 1.3047246, 1.3021535}},
    {{-0.4587666, -0.48801026, 0.0038190107},
     {0.23090696, -0.56135243, 0.3710962},
     {1.302016, 1.3014827, 1.3039037}},
    {{-1.3032922, -1.3057169, -0.76283514},
     {-0.7288069, -1.3014662, 0.26489848},
     {0.9133521, 1.3030014, 0.779857}},
    {{-1.3021625, -1.3046149, -0.16324112},
     {-0.58089787, -1.1787786, 0.20017788},
     {0.5682173, 1.30245, 0.8607653}},
    {{-0.7879418, -0.75270927, 0.34254822},
     {-0.6726228, -1.2606485, 0.26491302},
     {0.021315372, 0.798697, 0.26958114}},
    {{-0.7178281, -1.2547995, -0.0803311},
     {-0.7216428, -1.3035778, -0.090072624},
     {-0.023631569, 0.6673202, 0.30245107}},
    {{-0.007956438, -1.0896807, 0.02406372},
     {1.0303785e-05, -0.9811282, -1.5250142e-06},
     {1.0103991, 0.6647594, -0.26428518}},
    {{-0.14702897, -0.8677484, 0.10494487},
     {-0.45613238, -0.96584415, 0.32630324},
     {0.26836348, 0.81833935, -0.46835977}},
    {{0.028200617, -1.1378502, 0.07224074},
     {-0.27756897, -0.90448827, 0.5826666},
     {0.5815987, 1.0476046, -0.026180143}},
    {{-0.29021367, -0.48946455, -0.16613816},
     {-0.17978962, -0.685444, 0.019378284},
     {1.0274276, 1.042719, 0.11319031}},
    {{-0.6212464, -0.42462, 0.3681966},
     {-0.93351054, -1.2211533, 0.117925495},
     {0.11869856, 0.5383731, 0.4089482}},
    {{-1.2081273, -0.97887826, -0.10299635},
     {-0.47328976, -1.2438967, 0.18861263},
     {0.81940305, 0.61950123, 0.84777343}},
    {{-1.3021659, -1.237547, -0.64898384},
     {-1.277189, -1.3025063, 0.0037640866},
     {0.15451618, 0.5493781, 0.7209238}},
    {{-1.1860106, -0.96717376, -0.37526238},
     {-0.59870106, -0.93564886, 0.50995874},
     {0.37358975, 0.6073938, 0.57824254}},
    {{-0.9707492, -0.5910589, -0.465302},
     {-0.0001144042, -0.033771127, 0.4261294},
     {0.36288103, 0.8028152, 0.13632704}},
    {{-1.188937, -0.87055665, -0.60004854},
     {-0.22805649, -0.4339761, 0.35825977},
     {-0.05472351, 0.11702268, -0.44915658}},
    {{-0.5885942, -0.82247555, -0.16097936},
     {-0.38016537, -0.68498844, 0.43383786},
     {0.7144627, 1.1084204, -0.012324697}},
    {{-1.0703218, -1.3033385, -0.33278626},
     {-0.09105604, -0.70764184, 4.2970255e-06},
     {1.3038698, 1.3022199, -0.472715}},
    {{-0.9746317, -1.300863, -0.046730142},
     {0.007588934, -0.18883897, 1.3027588},
     {1.3044412, 1.3071398, 1.3031186}},
    {{-0.29066202, -0.5217626, 1.1138271},
     {-1.3033646, -1.3045598, 1.3039867},
     {0.8795843, 1.1485103, 1.3016317}},
    {{0.9509478, -0.12242375, 0.42685527},
     {0.289564, -0.09880966, 0.98641396},
     {-0.094241, -0.12877427, -0.35382593}}},
   {{{-0.3725744, 1.0559137, -1.3060848},
     {1.30303, 1.3021349, 1.3024755},
     {1.3036397, 1.3052809, 1.3019401}},
    {{-0.93684685, 1.3030311, -0.9508956},
     {1.3017144, 1.3027226, 1.302306},
     {0.42959917, -0.009752696, 0.33717716}},
    {{-0.07264408, 1.3022141, 0.11789273},
     {1.3042468, -0.038442526, 1.3047969},
     {-1.3027556, -0.87333864, -0.0005930146}},
    {{0.004021137, 1.3042171, 0.5720751},
     {1.0908272, 0.8527338, 1.3018513},
     {-1.3019016, -1.304183, 0.011984006}},
    {{-0.8932121, 1.3039927, 0.21189253},
     {0.36244565, -0.2159768, 1.3049301},
     {-1.3038368, -1.2812654, 0.52141}},
    {{-1.3022087, 1.3030219, 0.9045927},
     {0.0236744, 1.5237322e-06, 1.3030465},
     {-1.3024647, -0.4419598, 1.3021666}},
    {{-1.012153, 1.3011246, 1.302535},
     {0.17621884, -0.3189831, 1.3026885},
     {-1.301636, -0.01446987, 1.30034}},
    {{-1.3043345, 1.3018503, 0.93375593},
     {-0.24516393, -0.7051061, 1.306179},
     {-1.301773, -1.1899375, 1.3035283}},
    {{-1.303511, 1.3004178, 1.3037727},
     {-0.16511226, -0.9490375, 1.3058636},
     {-1.3031746, -1.3013142, 1.3044575}},
    {{-1.3010842, 1.3061749, 1.304425},
     {-0.0054235174, -0.8529683, 1.3048421},
     {-1.3031089, -1.3039197, 1.3028828}},
    {{-0.649254, 1.3062174, 1.3012518},
     {0.008056762, -0.0020221449, 1.305259},
     {-0.44436622, -0.79726917, 1.3020765}},
    {{-0.32427803, 1.301012, 1.3062655},
     {-3.7337486e-07, -0.75290823, 1.3058654},
     {-1.1379869, 0.00028367867, 1.3022357}},
    {{-0.6027779, 1.3003571, 1.3023149},
     {-0.0027803248, -1.0983946, 1.3005484},
     {-1.3014302, -0.1506335, 1.3010033}},
    {{-0.48407525, 1.3031353, 1.3047849},
     {-0.14184615, -0.32507923, 1.300517},
     {-1.3029029, -0.063943766, 1.3040242}},
    {{-0.5557292, 1.2369088, 1.3009077},
     {1.9914845e-05, -1.3040785, 1.3004513},
     {-0.7765401, -0.14342113, 1.1952739}},
    {{-0.3293277, 1.3015838, 1.3047945},
     {0.019019308, -0.8457975, 1.301054},
     {-0.37021247, 5.517976e-06, 1.3004773}},
    {{-0.088030875, 1.302192, 0.74829733},
     {-0.9279245, -1.3019601, 1.3010155},
     {-1.3059489, -1.2357298, 1.30415}},
    {{-0.32292303, 1.3041729, 0.3093076},
     {-0.4164915, -1.3013332, 1.3059638},
     {-1.3034369, -1.302935, 0.3382821}},
    {{-0.19096929, 0.97272915, 0.58260304},
     {0.055267658, -1.307975, 1.3010322},
     {-1.3041269, -0.5846719, 1.3042728}},
    {{-0.10957515, 1.3047103, 0.8643374},
     {-0.08629604, -1.3038855, 0.49211687},
     {-1.3050503, -1.3024884, 0.00052984053}},
    {{-2.731011e-06, 0.30328283, 0.054824375},
     {-0.0031769439, -1.3053454, 0.8342033},
     {-1.302158, -1.1371536, 1.301635}},
    {{-0.21659087, 0.74725807, 0.12274796},
     {-0.639602, -1.3047867, 0.8349138},
     {-1.3041477, -0.4887387, 1.302705}},
    {{5.763943e-07, 0.40940565, 0.058563065},
     {-0.015139809, -1.3058375, 1.3021867},
     {-0.8580907, -0.0073965024, 1.3054183}},
    {{-0.4404215, 0.28215012, 0.85244477},
     {-0.1393205, -1.3040209, 0.5558568},
     {-1.0765076, 0.05104602, 0.505274}},
    {{-0.11329108, 0.0036439435, 0.67944574},
     {-0.04338459, -1.305177, 0.047106147},
     {-0.3161965, -0.02669377, 0.22861709}},
    {{-0.9085536, -0.007233903, 0.2806093},
     {0.5529529, -1.300373, 0.17492652},
     {-0.33199364, -0.59939396, 1.301866}},
    {{-1.3048699, 0.0578161, 1.304153},
     {-0.5359397, -1.3006843, 0.5270138},
     {-0.31911013, -0.30231732, 1.30293}},
    {{-1.1126409, -3.0426529e-05, 0.5441787},
     {-0.22840054, -1.3040029, -0.09539184},
     {3.1399247e-06, -0.64806134, 1.304962}},
    {{0.3495286, 1.1062751, 0.20810364},
     {0.1068574, -1.3067442, -0.057314746},
     {-0.026516674, -1.3074954, 0.40942287}},
    {{-0.053253654, 1.3059005, 1.2524469},
     {0.047927383, -1.3023437, 0.46995544},
     {-0.5618957, -0.94309115, 1.3080136}},
    {{-0.74169207, 0.9745679, 1.0703163},
     {-1.3033602, -1.3028743, -0.61580527},
     {-0.037745506, -1.3024876, 0.09180315}},
    {{-1.3047715, -1.303924, -0.052767698},
     {-1.3039582, -1.3022226, -1.3041434},
     {-0.57014334, -0.83874923, -0.4279012}},
    {{-0.47210628, -0.051984444, -1.3034492},
     {1.3041717, 1.3014206, 1.3034588},
     {1.3041378, 1.3025408, 0.5234126}},
    {{-0.3285649, 1.0496304, -1.3052292},
     {1.3023489, -0.014333174, -0.00047749342},
     {0.6142378, -1.0412651, -1.0082707}},
    {{-0.103724465, 1.3033825, -1.3052628},
     {1.3041625, -0.2925829, -0.22230819},
     {0.36111104, -0.33419925, -0.63397497}},
    {{0.6190149, 1.3027184, -1.3025259},
     {1.3030481, 0.0029290933, -0.8080698},
     {0.73674065, -0.2527618, -1.3023311}},
    {{0.36466423, 0.9657016, -1.3030564},
     {1.3028646, -1.3013793, -1.2393043},
     {0.058993343, -0.07931428, -0.506567}},
    {{0.3223225, 0.16535996, -1.1598725},
     {1.3015906, -1.3020918, -0.5381605},
     {0.45794514, -0.23494154, -0.00025318054}},
    {{0.0027515388, 0.0880872, -1.3035617},
     {1.3019973, -1.3023263, -1.3018281},
     {0.00013235291, -0.8187118, -1.0184246}},
    {{0.2791865, -0.08543564, -1.3026484},
     {1.3027261, -1.0495836, -1.3057095},
     {1.0316153, 7.254275e-05, -0.5110679}},
    {{-0.124703884, 0.01071595, -1.3028756},
     {1.3023707, -1.2368875, -0.76477444},
     {0.52977943, -0.06858879, -0.27184528}},
    {{0.00032125355, 8.565554e-05, -0.96851814},
     {1.3010375, -1.2260748, -0.15939148},
     {0.7115063, 0.6200951, -0.12382226}},
    {{0.09389636, -0.27524722, -0.9491295},
     {1.3052489, -1.3028564, 0.030757174},
     {1.3028619, 0.06894297, -6.6200124e-07}},
    {{0.25070137, -0.008810119, -1.3041921},
     {1.3033825, -1.3025285, -0.70206136},
     {1.3036252, -0.001749318, -0.001756385}},
    {{0.09607464, -0.19479935, -1.2325459},
     {1.304849, -1.300589, -0.3596742},
     {1.1693125, -0.12025256, 2.260153e-07}},
    {{0.088987306, -0.20492427, -1.1562487},
     {1.3033196, -1.3021867, -0.80547315},
     {0.92988586, 9.327957e-08, 0.00066918094}},
    {{0.66378266, 9.015104e-06, -0.7986624},
     {1.3037579, -1.3069003, -1.1995378},
     {0.8049789, -0.017929964, -0.45300388}},
    {{-0.108537585, -0.15309928, -0.97416365},
     {1.1853609, -1.3025073, -0.81812507},
     {6.6706845e-05, 0.009840446, -0.11412009}},
    {{0.012468249, -0.55091524, -1.0337374},
     {0.012153844, -1.3045914, -0.9157862},
     {0.08843787, -0.0070171454, 0.03896651}},
    {{0.44757152, -0.1326935, -1.1053201},
     {0.872091, -1.3055409, -0.94747},
     {0.14875168, -0.09920784, -0.62436414}},
    {{0.021052063, 0.65966886, -0.31677237},
     {0.9982087, -1.3031304, 0.00013974878},
     {0.00025653702, 0.015090274, -0.04965107}},
    {{5.742115e-07, -0.00041609863, -0.22663821},
     {0.8323588, -1.3045471, -1.147956},
     {0.8508904, -0.013650033, -2.6697215e-05}},
    {{-0.22594514, -0.10792038, -1.3052753},
     {0.00082998804, -1.3007249, -1.3027532},
     {0.026989887, 0.017369876, 0.09689247}},
    {{0.11701103, 0.360993, -1.3038384},
     {0.3948721, -1.3058505, -1.3022693},
     {0.12054146, 0.06831231, -0.61910206}},
    {{-0.0029423484, -0.076831415, -1.3021818},
     {-0.068250224, -1.3027632, -1.3012455},
     {0.50617456, -0.09868563, 0.013084068}},
    {{-0.49063644, 0.0014311214, -1.3043599},
     {0.24115603, -1.3006353, -1.3037802},
     {-3.9095906e-07, 0.0013621681, 0.049439214}},
    {{0.15252854, -0.20108137, -0.049897067},
     {0.13564052, -1.3017373, -1.1001737},
     {-0.009790081, -0.91229504, -0.15959992}},
    {{-0.0007107991, 0.2669875, 0.095332034},
     {-0.23754223, -1.3043647, -0.9428337},
     {0.052178383, -0.7065348, 0.70207345}},
    {{-0.6192655, 0.6467458, -0.26646826},
     {-0.4606513, -1.3012661, -0.4420403},
     {0.12674002, 0.009869191, 0.18377027}},
    {{0.16590281, 0.6802524, 0.19328067},
     {0.0001805429, -1.303263, -0.38805792},
     {0.3428589, -0.3911728, -0.13197702}},
    {{0.15670592, 0.97068465, 0.40871736},
     {0.3468073, -1.3049339, -0.5163161},
     {0.23248369, -1.0347543, 0.025196085}},
    {{-0.52666473, -0.1593233, 0.0109844},
     {-0.43497726, -1.3033714, -1.0200002},
     {0.49328527, -1.3040593, 0.43309382}},
    {{-0.57792544, 0.52618676, 0.028945073},
     {-0.33998638, -1.3023251, -1.301775},
     {1.3029916, -1.3031615, 0.36086032}},
    {{-1.3026103, -1.3015813, -1.3032087},
     {-1.3069243, -1.303477, -1.3083528},
     {0.16684279, -0.60400975, 0.71250826}},
    {{-0.75671566, 0.28582034, -1.3033953},
     {1.3027883, 1.3026342, 1.3013446},
     {1.3012841, 1.3016735, 1.3037899}},
    {{-0.6466484, 1.2334582, -1.3032084},
     {1.3030869, 1.2135104, -0.10367136},
     {1.3033297, 0.9917148, -0.5408405}},
    {{-0.7795058, -0.046050046, -1.304324},
     {1.3031677, -0.3060275, 0.012046488},
     {-0.0001231921, 0.018165845, -0.008500938}},
    {{-0.80520934, 0.7385703, -1.3026384},
     {1.3053554, -0.867648, -0.53806937},
     {1.3037034, -0.78306, 3.7565682e-05}},
    {{-0.31200647, 0.43757293, -0.67533743},
     {1.300282, -0.7187891, 0.0024773644},
     {0.24365593, 0.2920655, 0.21141018}},
    {{0.011255722, 0.8713655, -0.07395213},
     {1.3024075, -1.1319729e-05, -0.026816564},
     {-0.0089553725, 0.18843272, 0.10749703}},
    {{-1.0572715, 1.883131e-07, -1.2141479},
     {1.3012673, -1.3040833, -1.3013804},
     {0.92202395, 0.10172018, -0.037537165}},
    {{-0.5050248, 1.095246, 1.5526861e-07},
     {1.3021243, -1.3033448, -1.1054386},
     {0.10769915, -0.07175637, 1.2097472e-05}},
    {{-0.3106286, 0.32680568, 0.028578764},
     {1.3040507, -1.3024577, -0.22513625},
     {-0.07746493, 0.004560147, -0.09559193}},
    {{-5.724781e-05, 0.05851955, -0.2526392},
     {1.3024101, -1.3022388, 0.0003445877},
     {0.19691116, 0.040889494, -0.4183787}},
    {{-0.7790091, 0.20921771, 0.11814807},
     {1.3014662, -1.3029368, -0.26832274},
     {-0.0001746544, 0.013150433, 0.22778708}},
    {{-1.1524276, 0.1487606, -0.14228542},
     {1.3015835, -1.301902, -0.075466454},
     {0.0030020196, 5.7578028e-08, -0.48154554}},
    {{-0.14189102, 0.038284417, -0.19157778},
     {1.3027159, -1.302153, -1.1148702},
     {-1.9338057e-05, -0.0068395524, -0.50325567}},
    {{-0.018968256, 0.26799232, 0.14038597},
     {1.3049921, -1.3016914, -0.05843216},
     {-0.023627112, 0.008769162, -0.031338893}},
    {{-0.34961367, 0.10995378, -0.01102369},
     {1.3029362, -1.3029093, -0.07751104},
     {-0.15333113, -0.030607902, -0.0040812776}},
    {{0.00041657113, -0.07682946, -0.3599694},
     {1.2781211, -1.3033128, -0.7686157},
     {0.027364995, 0.013728286, 0.05544103}},
    {{0.0013664124, 0.29121044, 1.3740682e-06},
     {1.0002613, -0.31576183, -0.54478246},
     {0.010513748, 0.22950052, -0.07945531}},
    {{-0.1822319, 0.0113182245, -0.05324642},
     {0.42030767, -1.087713, -0.23945022},
     {-0.14642343, 0.24775504, 0.30317962}},
    {{-0.4568415, 0.062052373, -0.81513715},
     {0.89976066, -0.5832327, -1.3010564},
     {0.55433166, -0.0037258172, -0.47221324}},
    {{-0.99042803, -3.670436e-05, 0.00080066285},
     {0.4810694, -1.3012145, -1.3040833},
     {0.3078129, 0.3966664, -0.061016113}},
    {{-0.28511924, 0.23571739, 0.07492277},
     {0.00682465, -1.3032799, -0.51699907},
     {-0.0014079111, 0.025931623, -0.3290714}},
    {{0.058667246, 0.63680226, -0.2821525},
     {0.58396673, -1.028067, -0.8416807},
     {0.64383566, -0.11308612, -0.21737234}},
    {{-0.4681162, 0.06392131, -1.0104698},
     {0.0023270193, -1.3019826, -1.0655856},
     {-0.2315239, -0.10162492, 0.010886649}},
    {{-0.05490034, 0.48350203, -1.0938305},
     {0.16393143, -1.3013046, -1.1120418},
     {0.04070036, -0.009845853, -0.40479183}},
    {{-0.37375888, 0.25479266, -0.016878543},
     {0.39625934, -1.3025358, -0.14475395},
     {1.2529927, 0.06437963, 1.0567568e-06}},
    {{0.19581853, 0.030402029, 0.04300191},
     {0.14807355, -1.305033, -1.02314},
     {1.2726126, 0.5924572, 0.6607152}},
    {{0.13213685, -0.0004097307, 0.12891763},
     {0.27443027, -1.3061072, -0.70542514},
     {0.20766489, -0.029784065, -0.18811029}},
    {{0.39014894, 0.733938, 0.08977961},
     {0.015323045, -1.3022095, -1.2946575},
     {0.80519134, -0.514633, -0.14109893}},
    {{0.23895393, 1.7343657e-05, -0.5477486},
     {-0.05802928, -1.3023599, -1.3052707},
     {1.3037137, -0.018407429, -0.8794511}},
    {{-0.17907158, 0.1337107, -0.7893766},
     {-0.3488669, -1.3041924, -1.3008691},
     {1.3039259, 0.08528604, 0.0048367935}},
    {{-0.00023015501, -0.01118038, -0.4493449},
     {-0.08513954, -1.3045979, -1.302257},
     {1.303215, -0.41857353, -0.15622282}},
    {{-1.3022181, -1.3064287, -1.3047576},
     {-1.3057704, -1.3024943, -1.3008578},
     {0.099201925, -0.6477834, 0.09163215}}},
   {{{1.3034054, 1.3035282, 1.3061353},
     {1.3029152, 1.3038877, 1.3036757},
     {1.3045231, 1.3011931, 1.0533912}},
    {{0.066132665, 1.3043752, -1.0535887},
     {1.3003939, 1.3049461, -0.7110142},
     {0.80473405, 0.3581229, -1.3034884}},
    {{-1.3009856, 1.3047639, -0.78785527},
     {1.3027282, 1.3063068, 0.0030920361},
     {1.3037776, 1.0173861, -0.89597535}},
    {{-1.3050666, 1.3007033, -0.047516774},
     {1.3040497, 1.3060759, -0.6406021},
     {1.3057224, 0.43611786, -0.6138369}},
    {{-0.56020445, 1.3008618, -0.2848104},
     {1.3026786, 1.3026755, -0.40253058},
     {1.301883, 0.00017234028, -1.301864}},
    {{0.13734816, 0.29506925, -0.0018271207},
     {1.3024356, 1.3037703, -1.3012578},
     {1.3048123, -0.05531437, -1.3016446}},
    {{-0.37119463, 1.302157, -0.35558408},
     {1.3049458, 1.3044177, -1.30073},
     {1.3054137, -0.063423514, -0.005207914}},
    {{-1.212502, 1.3024946, -0.09921318},
     {1.3044552, 1.3034009, -1.3027754},
     {1.3036447, 0.010792573, -0.13401224}},
    {{0.0113199195, 0.5157298, -1.2590399},
     {1.3014957, 1.3011824, -1.303383},
     {1.3013539, -0.6494568, -0.72875196}},
    {{0.10827495, 1.3011016, -1.1351068},
     {1.3052374, 1.3041043, -1.3034741},
     {1.301854, -0.32623798, -1.1070015}},
    {{-0.34388387, 0.8736718, -0.47668064},
     {1.3057473, 1.3006985, -1.3020676},
     {1.3043222, -0.38879445, -0.3857142}},
    {{0.0076483944, 0.43066424, -0.32577857},
     {1.3043202, 1.3026683, -1.3051888},
     {1.3030971, -0.6811095, 6.819403e-07}},
    {{-0.003065569, 1.3027551, -0.33431014},
     {1.3033649, 1.2365148, -1.3062477},
     {1.2041886, -0.9217212, -0.6627186}},
    {{0.46256393, 0.6931466, 2.4563156e-05},
     {1.1521358, 0.2697005, -1.3037744},
     {0.2091652, -0.27097094, -0.40895554}},
    {{0.2635113, 1.3022304, -0.74107397},
     {1.3033017, 0.23137827, -1.3013371},
     {-4.750225e-06, -1.300691, -1.3039228}},
    {{0.0011498544, 0.84850985, -0.00031614598},
     {0.05013912, 0.17036487, -1.3044705},
     {0.02161307, -1.3021736, -0.79243696}},
    {{-0.077049434, 0.052200947, -0.38614646},
     {1.0753666, 0.46858236, -1.3049079},
     {-0.03063308, -0.07927479, 0.0011183702}},
    {{-0.280895, 0.99615026, -0.11097662},
     {1.0252138, -6.526391e-05, -1.3028656},
     {0.61176103, -0.71572834, 0.27398738}},
    {{0.06092258, 0.46608698, -0.23452674},
     {0.68308675, 0.5230456, -1.3013749},
     {-0.18615277, -1.3053622, -0.04319444}},
    {{-0.0012722444, 1.0735804, -0.69988334},
     {1.3034495, 0.67302555, -1.302749},
     {0.08114834, -1.3028601, -0.6975618}},
    {{-0.2566522, 0.65951496, -0.81139773},
     {0.47266448, 0.06466042, -0.9076272},
     {0.15872005, -1.3048512, -0.017368741}},
    {{0.30160803, -0.46328083, -1.3042871},
     {1.3024365, 0.50171846, -1.304324},
     {0.7991548, -1.0392519, -0.36403498}},
    {{9.33805e-05, -0.00042914785, -1.301507},
     {1.3018289, 0.5237407, -0.9434596},
     {0.42791864, -1.3005077, 0.011154775}},
    {{0.06416327, 0.2766754, -1.304298},
     {1.3031789, 0.70643383, -0.8892651},
     {0.039780565, -1.3026501, -0.029238211}},
    {{0.6079197, -0.003417306, -1.2419724},
     {1.3019179, 1.3065748, -0.59734136},
     {0.8160682, -0.23609814, -0.35896066}},
    {{-0.014108412, 0.56710917, -1.3056339},
     {1.3026624, 1.3018653, -1.3016492},
     {1.3031931, -1.3047204, -0.99235046}},
    {{0.06809775, 0.3353931, -0.7374618},
     {1.3040279, 1.3023902, -1.3027275},
     {1.0708125, -0.22080764, -0.071955286}},
    {{0.04098934, 1.3017547, -0.58442795},
     {1.3045267, 1.301718, -1.3027409},
     {0.92656976, -0.3872852, 0.07005106}},
    {{-1.3069073, 0.286633, -0.032341197},
     {1.3018674, 1.3022168, -0.95355684},
     {1.301595, -0.6975807, 0.66838574}},
    {{-1.3033235, 1.3060516, -0.1474829},
     {1.3025098, 1.3035753, -1.3037295},
     {1.305073, -0.7990317, 0.00015878039}},
    {{-1.3008575, 0.70117015, -0.6640337},
     {1.3018886, 1.3030295, -1.3021945},
     {1.3062522, -0.28097478, -0.397102}},
    {{0.17169923, 1.2688937, 0.37677297},
     {0.20247251, 0.2506536, 0.06215389},
     {1.3041729, 1.3009291, 1.3015203}},
    {{0.37867022, 1.3028212, 1.2720866},
     {1.3021808, 1.3022481, 1.3026668},
     {1.3030748, 1.3022504, 0.71514606}},
    {{-1.3028506, 1.3072356, -0.21255612},
     {1.3011533, 1.3008101, 0.28015882},
     {0.7528889, 0.49577782, -0.0007245207}},
    {{-1.3046495, 1.30047, -0.5654274},
     {1.2913386, 1.3044099, 0.36229903},
     {1.0066705, -0.095352404, 0.13340056}},
    {{-1.305251, 0.6524989, -0.16749413},
     {0.11713209, 1.3052269, -0.40320596},
     {1.303758, -0.07042573, 1.1298984}},
    {{-1.3059375, 0.5164721, -0.3613763},
     {-0.067954555, 1.3026522, -0.12741771},
     {1.3062377, -1.1831181, 0.56149405}},
    {{-1.3026929, -0.3352186, -1.301584},
     {-0.012913549, 1.3017997, -0.73233044},
     {1.301264, -0.6401634, 0.53604794}},
    {{-1.302364, 0.44948116, 0.05604421},
     {0.79828554, 1.3022846, -0.8282252},
     {1.3026642, 2.1881226e-06, 0.65672654}},
    {{-1.3041395, 0.029458137, -0.18306662},
     {-0.016757224, 0.7774374, -1.1323916},
     {0.14103988, -0.620407, 0.9716694}},
    {{-1.3048309, -0.009365957, -0.78312516},
     {7.5577184e-08, 0.85410887, -1.303344},
     {0.50068516, -0.41149387, 0.012669951}},
    {{-1.3020742, 0.22527315, -1.0122093},
     {0.5790507, -7.979129e-06, -1.303018},
     {0.40489924, -0.57874984, 0.0046861703}},
    {{-0.3766016, -0.009542531, 0.055497352},
     {0.75234294, 0.17852294, -1.0988693},
     {1.2385826, -0.09014432, 0.027725715}},
    {{-1.2630305, -0.14756042, -0.12554026},
     {0.43697986, -0.0015197817, -1.2145563},
     {0.91028124, -0.22521453, 0.25786462}},
    {{-0.83598834, -0.010008905, -0.03865475},
     {0.7808461, 0.05270489, -1.0377089},
     {0.69255567, -0.7007972, 0.19495368}},
    {{-0.5899493, 0.03213706, 9.3433984e-05},
     {0.15203136, 0.44624165, -0.80099094},
     {0.56875646, 0.0002983842, -0.10928604}},
    {{-0.6038137, -0.01664734, -0.38990077},
     {0.04462339, 0.032926872, -0.4898227},
     {0.2633149, -0.57314575, 0.28124136}},
    {{-0.2123699, -0.0038045023, -2.606131e-07},
     {0.26441014, 0.022829019, -0.58063155},
     {0.63079405, -0.9787702, -0.008194836}},
    {{-0.16480412, 0.00033027795, 0.11020238},
     {0.21482104, -0.11464427, -0.015286546},
     {0.39357728, -0.43476745, 0.6794178}},
    {{-0.272691, 0.00013121766, -0.7367162},
     {6.897759e-06, 0.4258104, -0.72396225},
     {-0.00027807552, -1.0369147, -1.4526694e-06}},
    {{-1.0240026, -0.12401602, -0.97340554},
     {0.69496506, 0.32049373, -0.9102838},
     {0.062037084, -0.77825075, 0.69586223}},
    {{-0.44420823, -0.011943286, -0.058768317},
     {0.124071375, 0.0103508895, -0.7451546},
     {0.00352423, -1.0011665, 0.0027540226}},
    {{-0.014145582, -0.8216261, -0.6278922},
     {1.3045418, -0.0035482359, -1.0423288},
     {1.2273977, 9.2635524e-08, 0.16303812}},
    {{-0.7635727, -0.2498067, -0.0007684711},
     {0.39187837, 0.0108438255, -0.81502676},
     {0.02667312, -0.06728485, 0.14312476}},
    {{-0.24321501, 0.015619829, -0.9853299},
     {0.7104908, -0.0006848359, -0.761962},
     {0.8583685, -0.35886064, 0.64044994}},
    {{-0.6049147, -0.002534126, 0.004897113},
     {-0.0003935755, 0.040170107, -1.0172871},
     {-0.05036886, -0.24939051, 0.84095603}},
    {{-0.9360893, -0.17189889, 0.0016202371},
     {0.052507542, 0.41743514, -0.840072},
     {-0.047749735, -1.045101, 0.08524631}},
    {{-0.21504538, 0.051799048, -0.5814622},
     {0.2648027, 0.3664949, -1.0765291},
     {0.35599944, -0.077674724, 0.34556207}},
    {{-0.91654694, -2.6854204e-07, -0.20753194},
     {-0.006778115, 0.4102901, -1.0339501},
     {0.24301177, -0.15370381, 0.0905898}},
    {{-0.83913255, -0.49692252, -0.017381145},
     {0.7282137, 0.51257646, -0.32621634},
     {0.9278982, -0.22922471, -0.18584666}},
    {{-1.30496, -0.08665891, -0.0005127769},
     {1.3019639, 0.77650523, -0.7651505},
     {1.2835546, -1.3024228, -0.6116956}},
    {{-1.3037932, -0.22325562, 0.18507434},
     {1.2477989, 0.57656753, -1.3026621},
     {1.3037441, -1.3049973, -0.41763362}},
    {{-1.303995, 0.7082818, -0.059806272},
     {0.74298394, 0.91899365, -1.3004129},
     {0.93753415, -1.3035308, -0.054123804}},
    {{-0.851512, 0.42632455, -0.017725047},
     {0.0566228, 0.51246953, -1.3057178},
     {1.3022319, 1.3031602, 1.3005863}},
    {{-0.7280675, 1.3024874, 1.3021623},
     {1.3028405, 1.3049953, 1.3015848},
     {0.7902143, 1.3057638, 0.38988045}},
    {{-1.3058223, 1.3038055, 0.6176428},
     {-0.05550918, 1.3024884, 0.9051559},
     {-0.6036124, -0.5351874, 0.7941505}},
    {{-1.3040546, 1.3033406, 0.49348354},
     {-0.3511422, 1.3019371, 0.07476515},
     {-0.5675878, -0.54599106, 1.3046964}},
    {{-1.3020985, 1.303426, 0.2033804},
     {-1.3036808, 1.3035034, 0.3437673},
     {-1.3007442, -0.95595086, 1.0416443}},
    {{-1.3010529, 0.3654842, 0.88776624},
     {-1.306756, 1.3012599, 0.43655258},
     {-1.3036736, -0.62934566, 1.3010685}},
    {{-1.3045089, 2.872939e-08, 0.7697372},
     {-1.3020439, 1.3033165, 1.3013786},
     {-1.3032715, -0.6869907, 1.3029463}},
    {{-1.3026849, 0.31399006, 0.7705748},
     {-1.3016033, 1.1106862, 1.1811697},
     {-1.3018569, -1.3029453, 1.3022156}},
    {{-1.3033173, 0.54281336, 0.000120449455},
     {-0.12776431, 1.1875541, 0.63351834},
     {-0.5934583, -1.3031287, 1.3093237}},
    {{-1.0940944, 0.8000999, 0.55385435},
     {-0.044205807, 1.2491901, 1.3426116e-05},
     {-0.43195018, -0.5330511, 0.63879853}},
    {{-0.40609702, 0.69312465, 0.5044},
     {-0.6790043, 0.7798208, 0.06749985},
     {-0.36332452, -0.10546327, 0.5526207}},
    {{0.00020169221, -0.0024026914, 0.67829853},
     {-0.03541804, 0.40163475, 0.002260858},
     {-0.201465, -8.2853484e-07, 1.3013796}},
    {{-0.6566345, 0.21169148, 0.5644677},
     {-0.61650956, 1.1341808, 0.8533844},
     {-0.0053160307, -0.15405472, 0.96174437}},
    {{-0.2394434, -0.10448536, -1.45811655e-05},
     {-0.3991337, 0.029045913, 0.58120114},
     {-0.45245615, -0.4309779, 0.584884}},
    {{8.350768e-06, 0.97945195, 0.6805244},
     {-0.021952761, 2.3854518e-06, 0.3284432},
     {-0.2461659, -0.19423586, 0.701755}},
    {{0.07361963, 1.3035076, 0.28632224},
     {-0.00011359838, 0.46417347, 0.6525832},
     {-0.002965164, -0.42475894, 0.8895027}},
    {{-0.44126654, -0.13880302, 0.37381566},
     {-0.6815613, 0.08337874, 0.33199},
     {-0.010542563, -0.37203613, 0.9783404}},
    {{0.0045038806, -0.0008857386, 0.56954396},
     {-1.0454003, -0.072321385, 0.6448584},
     {0.008515382, 0.0043300777, 0.09321252}},
    {{0.008525068, 0.4801942, 0.48189825},
     {-0.52856076, 0.06953575, 0.35010803},
     {0.05134361, -0.045758538, 1.3023993}},
    {{-0.33707333, 0.056469455, 1.0251398},
     {-0.85585725, 0.037701502, 0.40972927},
     {-0.100384854, -0.17434506, 1.2565135}},
    {{-1.0181748, 0.008962112, 0.5444308},
     {-0.70822394, 0.1348256, -0.001068829},
     {-0.026866332, -0.039815705, 0.9256557}},
    {{-0.31081957, 0.28724632, 1.184877},
     {-0.11072774, 0.0006936765, 0.97178143},
     {-0.06204746, -0.34187537, 1.3053797}},
    {{-0.008743235, 0.75625366, 1.30581},
     {-0.029572709, 0.3378505, 0.505054},
     {-0.028692808, -0.122661725, 0.93627936}},
    {{-0.11905722, 0.51389146, 1.30453},
     {-0.7230109, 0.25543925, 0.46463293},
     {-1.040164, -0.24925199, 1.0674129}},
    {{-0.5869835, -0.020821221, 1.3022134},
     {-0.33174405, 0.038352434, 0.39663875},
     {-1.0474224, -0.6871889, 1.3025478}},
    {{-0.065194316, 0.18046935, 1.3016766},
     {-1.0162586, 0.4801218, 0.14857712},
     {-0.022693481, -0.7183942, 1.2567155}},
    {{-0.90519357, 0.004791251, 1.1746889},
     {-0.5449317, 0.043995645, -0.07877676},
     {0.07387218, -1.1021141, 0.072785795}},
    {{-1.0687525, 0.92310286, 1.3025231},
     {-0.47974595, 0.24504723, 0.00010460735},
     {-0.096335255, -0.93484676, 0.69471645}},
    {{-0.96875155, 1.303328, 1.3034301},
     {0.21591145, 0.90839934, 0.093240485},
     {-0.52113354, -1.3011233, 0.9895802}},
    {{-0.787814, 1.3045409, 1.3034538},
     {-0.08221606, -0.13963026, 0.64967686},
     {-0.5467082, -1.3027322, 0.4177245}},
    {{-1.3032653, 1.3017741, 1.3009334},
     {0.050789148, 0.9362802, 0.66721314},
     {-0.7540147, -1.3057877, 1.0273591}},
    {{-1.3025503, 1.1457881, 1.3052776},
     {-0.7967999, 1.1134423, 1.2571253},
     {-0.13287629, 0.09212217, 1.301229}},
    {{-1.3029695, 1.1124744, 1.3043023},
     {-0.39129427, 0.78862476, 0.4120931},
     {1.3038985, 1.3025208, 1.3021653}}},
   {{{0.006546401, -0.7082139, -0.29591337},
     {-0.6462891, -1.302426, 0.7311132},
     {1.3071674, -0.7796286, 1.304261}},
    {{0.0066272975, -0.05568018, 0.5020875},
     {-1.1217002, -0.5027802, 1.304594},
     {0.2528096, -1.3045533, 1.3043526}},
    {{-0.02448495, -0.78161746, -0.63270503},
     {-0.12940924, -0.014808666, 1.30356},
     {0.37876314, -1.05871, 1.3059981}},
    {{0.43824807, -0.22563207, 0.12302836},
     {-0.34001768, 0.28860754, 1.3005437},
     {-0.10439864, -1.30451, 1.3034251}},
    {{-0.47080082, 0.070416205, -0.004564634},
     {-0.33055773, 0.19449516, 1.3035883},
     {0.11228263, -0.7663402, 1.3040185}},
    {{-0.021272728, -0.42258188, -0.21437004},
     {-1.0566049, 0.46668616, 1.301893},
     {0.0010467657, -1.0196215, 1.3012334}},
    {{0.021102456, 0.43961737, -0.9270084},
     {-0.18201965, 0.38785514, 1.3027626},
     {1.3008555, -1.2570812, 0.69433695}},
    {{1.0386533, 0.021187244, -0.7261563},
     {-0.31221196, -0.00022449465, 1.3030806},
     {1.301489, -1.3043149, 0.55402994}},
    {{1.2208586, 0.24808402, -0.20221059},
     {-0.22692268, -0.011793793, 1.305216},
     {1.30316, -0.8113764, 1.0112534}},
    {{0.53328335, 0.6684701, -0.1161269},
     {-0.34160593, -0.16839474, 1.3019502},
     {0.13540351, -1.3042741, 1.3055365}},
    {{-0.12516229, 0.22154595, -0.51760095},
     {-0.67537266, -0.0654623, 1.128595},
     {-0.1671783, -1.3010318, 1.302868}},
    {{0.26408207, 0.0021740417, 0.050354883},
     {-0.22324075, -0.09550572, 0.8327099},
     {0.5013905, -1.302871, 0.73810863}},
    {{-0.012833429, 0.00039033606, -0.5367},
     {-0.08652096, 0.01979897, 0.7034677},
     {0.7760452, -0.9650498, 0.4235859}},
    {{0.4053155, 0.12994315, -0.23481205},
     {-0.25309038, 0.05572212, 0.35845277},
     {0.2889622, -0.33233348, 0.19946745}},
    {{0.00010948893, 0.36402637, -0.001455022},
     {-0.8295587, 0.10284947, 1.2680026},
     {-0.21928501, -0.47271487, 0.51857316}},
    {{-0.052596424, 0.4117566, -0.3052148},
     {-1.301717, 1.4040797e-06, 0.72420734},
     {-0.0012016146, -0.850308, 0.050794255}},
    {{-0.007566514, 0.080085024, -2.0866219e-06},
     {-0.7017796, 0.6800621, 0.99126095},
     {0.6665417, -0.03820493, -0.18517575}},
    {{0.015380643, 0.41012803, -0.059114814},
     {-0.7830461, 0.4164506, 1.30238},
     {0.0012643324, -0.583335, 0.4021219}},
    {{0.20245203, 0.0066372766, -3.826615e-07},
     {-0.49493757, 0.06368859, 1.3026046},
     {0.505764, -0.22676845, 0.39323968}},
    {{-0.08556693, 0.71456814, -0.03315638},
     {-0.35446602, 0.4823141, 1.3042421},
     {-0.01421569, -0.3193031, 0.93387455}},
    {{5.6052722e-06, 0.59161836, -0.35985625},
     {-0.047195915, -0.0037314452, 1.3016983},
     {0.22619411, -1.0721914, -0.045333948}},
    {{-0.020078702, -0.00068624184, 0.06045727},
     {-0.11129329, 0.32887474, 1.3061264},
     {-0.0064453003, -0.62439275, -0.029732378}},
    {{-0.2679583, 0.31925997, -0.07297034},
     {0.0927749, 0.109904066, 1.1116892},
     {0.9908723, -1.3063283, 0.07777574}},
    {{-0.04720954, 0.41732416, -0.402841},
     {0.025725663, 0.19100764, 1.3039962},
     {0.5181922, -1.2793084, 0.011049242}},
    {{-0.15454794, 0.15467343, 0.67987597},
     {-0.9829835, 0.0018401371, 1.3045225},
     {-0.58001345, -1.3034934, 0.40723112}},
    {{-0.23859608, 0.8372734, -0.030395202},
     {-0.93445784, 0.35042283, 1.302471},
     {-0.24765325, -1.3024071, 0.1864558}},
    {{1.0606667, 0.057962913, -1.1151738},
     {-0.026833719, -0.0047940714, 0.77870953},
     {-2.029789e-05, -1.1587433, -5.064137e-07}},
    {{0.9039852, 0.61054695, -0.5985332},
     {-0.69836146, -0.12839548, 1.3011613},
     {0.019913312, -1.3038788, 1.3066829e-05}},
    {{0.5302778, 0.5298478, -0.4173215},
     {-1.2235035, -0.6215756, 1.3067827},
     {-0.29240996, -1.300309, 0.6717255}},
    {{0.15266836, 1.0095726, -1.3010929},
     {0.0947346, -0.031581767, 1.3036747},
     {0.4233837, -1.3019692, -0.01820011}},
    {{0.5806604, 0.57739806, -0.71097267},
     {-0.01164881, 0.8310913, 1.3023819},
     {0.4854805, -0.87394613, 1.3020862}},
    {{-0.06292478, -0.72687554, -0.68760794},
     {-0.40334833, -0.60556513, 0.62701416},
     {0.47734272, 0.013739176, 1.0655521}},
    {{-0.84908265, -1.30245, -0.72408974},
     {-1.3025266, -1.3039246, 1.2536333},
     {0.23681039, -1.2663679, 1.3023791}},
    {{0.1514394, -0.034990154, -0.07489853},
     {-1.3023888, -1.3035413, 1.3059347},
     {-9.7923106e-08, -1.3011988, 1.3017315}},
    {{-0.19164586, -0.016332284, 0.18695994},
     {-1.3016754, -0.75867623, 1.301783},
     {0.5506958, -1.3020371, 1.3022727}},
    {{0.0028763996, -0.53138095, 1.3001769},
     {-1.0465455, -0.13702735, 1.302879},
     {0.069309585, -1.3037882, 1.3017528}},
    {{-0.644445, -0.00047867373, 0.030989615},
     {-1.3023356, -0.26599985, 1.3014281},
     {0.8033486, -1.3047718, 1.302713}},
    {{-0.21861415, -0.27978995, 0.61758065},
     {-1.0543572, -0.56798905, 1.3049458},
     {0.6510103, -0.872092, 1.3053116}},
    {{-0.041609317, 0.3858376, 0.029635826},
     {-1.302561, -0.68027234, 1.3047714},
     {-2.6591536e-07, -1.0030837, 1.3027911}},
    {{-0.68697065, -0.5151329, 0.7461074},
     {-1.3018154, 0.006464655, 1.302302},
     {0.5157566, -1.3007482, 1.3022482}},
    {{-0.32336962, -0.08722388, 0.7154554},
     {-1.3055636, -0.30663767, 1.3047725},
     {-0.037669905, -1.3007754, 1.3033521}},
    {{-0.24434693, 0.3955315, 0.41712794},
     {-1.3044508, -0.2968825, 1.3027228},
     {0.57176924, -1.0649351, 1.3040034}},
    {{-1.0785905, -0.073051296, 0.3895477},
     {-1.3044128, -0.43263483, 1.3013946},
     {0.5041907, -0.25330973, 1.3032949}},
    {{-0.7427117, 0.0023515667, 0.5408186},
     {-1.3026271, -0.57635444, 1.3023565},
     {0.028824884, -0.30717728, 1.3046094}},
    {{-1.0547906, -0.16813223, 0.6984896},
     {-1.3039246, -0.36384943, 1.302895},
     {0.08794063, -0.62627375, 1.3058232}},
    {{-1.3018199, -0.035738826, 0.9287137},
     {-1.1620853, -0.16043589, 1.3034661},
     {0.14353879, -0.029582279, 1.3015349}},
    {{-1.3011664, -0.008851573, 0.7091996},
     {-1.3013666, -0.06760344, 1.300656},
     {-0.007320274, -0.42427686, 1.3029426}},
    {{-0.5664, -0.06603802, 0.13413654},
     {-1.3006337, -0.16816399, 1.3063633},
     {8.5829684e-05, -0.41197404, 1.0747306}},
    {{-4.6439196e-05, -0.005420052, 0.66261},
     {-1.277051, -0.9170663, 1.3012831},
     {0.034519743, -0.88237256, 0.53523153}},
    {{-0.59787625, -0.005089019, 0.98238295},
     {-1.3030236, -1.0863724, 1.3005404},
     {-0.6425375, -1.3027703, 1.0568333}},
    {{-0.61187804, 0.00017788433, 0.16857603},
     {-0.93659633, -0.4366324, 1.3021325},
     {-0.12026972, -1.3005805, 0.40315852}},
    {{-0.2554163, 0.019753464, 0.15926585},
     {0.0038872154, -0.5259077, 1.1704576},
     {0.12729074, -1.3040917, 0.19260623}},
    {{-1.3031803, -0.48287007, 0.5226478},
     {-0.9181142, -0.53095096, 1.3031949},
     {-0.26869813, -0.5311359, 1.3000479}},
    {{-1.3042979, 0.14005703, 0.055512857},
     {-1.302567, -0.2419677, 1.3026447},
     {0.080718935, -0.7080604, 1.0577629}},
    {{-1.304366, -0.033067346, 0.6859669},
     {-1.3036951, -0.35010862, 1.3003589},
     {-0.10634833, -0.92384803, 0.8432383}},
    {{-1.304712, -0.37145123, 0.17765953},
     {-1.3037102, -0.12871295, 1.3020802},
     {-0.09530714, -1.118475, 3.218499e-05}},
    {{-0.10154679, 4.5096494e-05, -0.14180419},
     {-0.8740043, -0.44810814, 1.3021628},
     {0.47061333, -0.73152626, 0.55580837}},
    {{-1.2352245, 0.38170406, 0.3501409},
     {-1.303747, 0.41270524, 1.303714},
     {0.6446142, -0.4720016, 0.6606754}},
    {{-0.67492694, -0.0003948142, -0.93732417},
     {-0.80013585, 0.12618242, 1.3020756},
     {0.02144536, -1.0513605, 0.36386973}},
    {{-1.301521, 0.011067665, -0.0008176979},
     {-1.3034312, 0.0024495958, 1.3013588},
     {-0.07357771, -0.8833999, 0.43456563}},
    {{-0.122396894, -0.14695159, -0.78108287},
     {-1.3025901, 0.1074769, 1.3016407},
     {-0.6706115, -1.0184957, 1.3016497}},
    {{-0.113443375, 0.027573148, 0.5363019},
     {-1.3022397, 0.25459823, 1.3056064},
     {-0.2028166, -1.0870752, 1.1334609}},
    {{-0.97686315, 0.2081573, -0.51609504},
     {-1.3082229, -0.06649461, 1.302707},
     {-1.3065251, -1.3025864, 1.3031273}},
    {{-0.85471857, 0.1171675, 1.1552441},
     {-1.3062505, 0.014933117, 1.3045676},
     {0.9540192, 0.1599209, 1.3047962}},
    {{0.86816037, -0.6453592, 0.031494554},
     {-1.3076371, -1.3023106, 0.67042273},
     {0.33401024, -1.3057817, 1.1281056}},
    {{0.21776572, -0.09092894, -0.21000457},
     {-1.3049757, -1.3022509, 1.1249381},
     {-0.5350375, -1.3040236, 1.3022301}},
    {{0.71729136, 0.002671125, 0.42961982},
     {-1.3019894, -1.3032272, 1.3037994},
     {-0.42524883, -1.3032404, 1.3021737}},
    {{-0.49273387, 0.7098763, 0.5814261},
     {-1.3032014, -1.3049113, 1.3052927},
     {-0.048194755, -1.3047978, 1.3041693}},
    {{3.0258158e-07, 0.3717525, -8.005889e-05},
     {-1.3037468, -0.14266269, 1.3022974},
     {0.016760351, -1.3004376, 0.9241746}},
    {{-0.2975629, -6.0151256e-06, 0.54161716},
     {-1.3049705, -0.34021932, 1.3073367},
     {-0.04053821, -1.3059413, 1.3012947}},
    {{-0.057520572, 0.24393007, 0.5075934},
     {-1.3052111, -0.09771885, 1.3055316},
     {0.047044028, -1.3037431, 1.3013465}},
    {{-0.033537135, 0.3146646, -0.66073203},
     {-1.303253, -0.6398262, 1.3049895},
     {0.00038883867, -1.3024602, 1.3015491}},
    {{-0.2554111, -0.058575675, 0.15872411},
     {-1.3005095, 3.9922863e-08, 1.3012582},
     {-0.82037747, -0.6199378, 1.3022294}},
    {{0.013476189, 0.7620441, 0.33807883},
     {-1.3060052, -0.18548182, 1.3017404},
     {-0.898474, -1.0756454, 0.9719239}},
    {{0.20221248, 0.7566299, -0.064106226},
     {-0.8932169, -0.2240201, 1.3041375},
     {2.1616277e-07, -1.3035624, 0.84767365}},
    {{-0.09179124, 0.40987968, 0.18620415},
     {-1.3001279, -0.729944, 0.5506852},
     {-0.2699344, -1.1863391, 1.0288907}},
    {{-0.1988328, 0.05089587, 4.5785402e-08},
     {-1.1845318, -1.2785808, 1.3036284},
     {-0.42071182, -1.1919887, 0.85357237}},
    {{-0.048567675, 0.017567327, 0.016877173},
     {-1.3016295, -0.72683173, 0.5156894},
     {-0.70631075, -0.9341528, 0.61006397}},
    {{-0.02106229, -0.003624854, -0.116640456},
     {-1.1006356, -1.1300209, 0.7527514},
     {0.0012858391, -1.0298009, 1.087424}},
    {{-0.21733175, 0.11388005, 0.05923143},
     {-1.3036172, -0.88047695, 1.3025107},
     {0.36012527, -0.9988897, 1.301239}},
    {{0.00806102, 0.0050637103, 0.11066727},
     {-0.39466882, -0.29580814, 1.0031093},
     {0.00034403917, -0.35987628, 0.31493905}},
    {{0.175348, 0.28680417, 0.46562102},
     {-0.23141326, -0.22503081, 1.2004372},
     {1.0025271, -0.2513958, 0.21793704}},
    {{-0.22705974, -0.16177894, 0.33137578},
     {-1.3049108, -0.8534212, 1.3006998},
     {0.36835986, -0.6226496, 0.5745394}},
    {{-0.42760453, 0.3624919, 0.24402438},
     {-1.2522099, -0.62023216, 1.3091333},
     {0.080228575, -1.1536909, 0.9303317}},
    {{0.16907571, -0.17404737, -0.0019625549},
     {-0.28250614, -0.48192647, 1.3031894},
     {0.6460065, -1.3048458, 0.60291445}},
    {{0.18058315, 0.007468805, 0.4132251},
     {-1.0305498, -0.80185866, 1.3031259},
     {-0.6966368, -1.3011805, 0.48903638}},
    {{0.09431443, -0.7446908, 0.27997357},
     {-1.3048574, -1.3023893, 1.2046287},
     {-0.23813102, -1.3049946, -0.00048592302}},
    {{0.5868035, 0.10183217, 0.8433138},
     {-1.3012427, -0.47729257, 1.3062568},
     {-0.10138417, -1.3021095, 0.35190567}},
    {{2.0494268e-07, 0.1221778, 0.35868222},
     {-1.3007928, -0.19095306, 1.3031907},
     {0.051997177, -1.3025483, 1.1961948}},
    {{-0.94170606, -0.006371607, 0.33356583},
     {-1.3053293, -0.32840714, 1.3037034},
     {-0.122470796, -0.9576442, 0.586082}},
    {{-0.21416488, 0.009441096, -0.4927486},
     {-1.3020042, 0.24737099, 1.303381},
     {-0.3730663, -1.077537, 1.3017269}},
    {{-0.015588833, 0.749263, 0.013400598},
     {-1.3040694, 0.086339295, 1.3026605},
     {-0.4803545, -1.2485015, 1.3040686}},
    {{-0.00038850307, 0.42952564, 0.040783014},
     {-0.6138568, -0.55868435, 1.3034959},
     {-0.099796794, -1.2285984, 0.97294426}},
    {{0.5263873, -0.014492323, -0.4847905},
     {-0.94797754, -0.3622715, 1.3011446},
     {0.00020373134, -1.3015977, 0.70829415}},
    {{0.5420292, -0.15620446, -0.8118945},
     {-1.3017967, 0.12676415, 1.3021451},
     {-1.302405, -1.2494144, 1.302184}},
    {{-0.3488455, -0.15032633, -0.4564694},
     {-0.60559547, 0.8847247, 1.3016183},
     {0.015622289, -0.052120857, 1.3039057}}},
   {{{0.51360196, -1.3006088, -0.9895673},
     {-0.6011466, -1.3057468, -1.3026223},
     {0.6657235, -1.3042253, -1.3051027}},
    {{0.23850809, -1.301176, -0.31149787},
     {-0.7935827, -1.3035809, -1.3025159},
     {0.014709104, -1.3018944, -0.9509318}},
    {{0.3428784, -1.0299884, -0.034530953},
     {-0.124473594, 0.39630118, -0.6773563},
     {0.034183312, -0.87457085, -0.193161}},
    {{0.15867588, -0.58729964, 0.0213339},
     {-0.89426947, 0.74009466, -0.73341554},
     {-1.3044094, -1.3029435, -0.18232727}},
    {{0.08864935, -0.5202405, -0.30946958},
     {-0.23830381, 1.3003159, 1.1349155},
     {-1.2531831, -0.09284583, 0.26981384}},
    {{0.8692441, 0.17301291, 0.4956005},
     {-0.388781, 1.3028927, 1.2512943},
     {-1.009165, -0.2511868, 0.8665831}},
    {{0.17006755, -0.49416453, 0.00396122},
     {-0.5716327, 1.3025547, 0.55600774},
     {-0.38464874, -0.94638455, 1.3007449}},
    {{1.0057905, -9.766754e-05, 1.0353673},
     {-0.018995445, 1.3018423, 1.3011726},
     {0.017115133, -0.09359057, 1.3026633}},
    {{0.8581467, 0.31494632, 1.2636849},
     {-0.00031708964, 1.3018235, 1.3025815},
     {-0.11107805, 0.025960563, 1.3009391}},
    {{0.3627467, 0.0966696, 0.84825736},
     {-0.000112985224, 1.3030145, 1.1404759},
     {-0.7848427, -0.24688931, 0.22225694}},
    {{0.031521004, -0.014082715, 0.3474161},
     {-0.01960749, 1.3021607, 1.2013878},
     {-0.7657297, -0.38423446, 0.037522793}},
    {{-0.15373085, 1.110237e-07, -0.122807175},
     {-0.84412026, 1.3018714, 0.40087917},
     {-0.61965674, -1.0289972, 0.5108782}},
    {{0.081456654, -0.10542217, 0.2649058},
     {-0.7845452, 1.3013546, 0.24440865},
     {-1.1582454, -0.7313133, 0.86605686}},
    {{0.027061407, -0.018390328, 0.25222924},
     {-0.12705022, 1.301311, 0.015294233},
     {-0.9426368, 7.841895e-07, 0.6382292}},
    {{-0.0020811884, 0.08148035, 0.47561896},
     {-0.524763, 1.3013841, -0.07564714},
     {-0.1629937, -0.40590927, 0.32363266}},
    {{0.24581696, 6.8940165e-07, 0.17848164},
     {-0.47838125, 1.3034898, 0.020602264},
     {-0.7011755, -0.039309572, 0.4532802}},
    {{0.25263107, 0.26714867, 3.923977e-07},
     {-1.0754371, 1.3037021, 0.76784325},
     {-1.3028711, -0.023222083, 0.456004}},
    {{-0.0002240486, 0.21027485, -0.09455156},
     {-0.18221785, 1.3034245, 0.56486607},
     {-0.8602569, -0.0032750478, 0.5046048}},
    {{0.04584776, 0.62785125, -0.0013983466},
     {-0.17812335, 1.3046601, 1.0970981},
     {-1.1769454, -0.30152127, 0.07305229}},
    {{0.03974606, -0.0667713, 0.39619318},
     {-0.82370937, 1.3026251, 1.3024104},
     {-1.0956137, -0.314632, 0.34792668}},
    {{-0.00036066765, 0.003949932, -0.3009736},
     {-1.3024645, 1.3024458, -8.000854e-08},
     {-1.1963736, -0.91373557, -0.020890392}},
    {{0.12237193, -0.0037338254, 0.014701865},
     {-1.2919146, 0.8306777, 0.32107925},
     {-0.7483309, -1.1459582, 0.16051655}},
    {{0.24872528, 0.33032227, 0.15336798},
     {-0.9545036, 0.96635556, 0.5640259},
     {-0.4325926, -1.3016112, -0.007577175}},
    {{0.39242586, 0.2737327, 0.42951933},
     {-0.4838883, 1.3016229, 1.2616987},
     {0.0026117237, -0.5976506, 0.34874317}},
    {{0.43027136, 0.7016979, 0.7685829},
     {-0.70513475, 1.3029456, 0.9766158},
     {-0.81696963, -0.005501446, -0.09502232}},
    {{0.035587918, 0.031940654, -1.073912e-07},
     {-0.5435895, 1.3035315, 0.5335318},
     {-0.93955034, -0.49356884, -0.19280918}},
    {{-0.2309403, -0.001991783, 0.7759211},
     {-0.62582976, 1.3037552, 1.0122669},
     {-1.2004441, -0.33373937, 0.059064742}},
    {{-0.11385329, 0.41508618, 0.5338717},
     {-0.5768785, 1.3039659, 0.8790614},
     {-1.2410957, -0.3381615, -0.25873816}},
    {{0.5295706, 0.1385253, -0.2858764},
     {-0.020024551, 1.3034294, -0.3892208},
     {-0.2709469, -0.6899612, -0.24568993}},
    {{0.44825178, 0.0024013696, 0.033769704},
     {-0.7335235, 1.3033143, -0.82207644},
     {-1.3037763, -1.3044404, -1.3024883}},
    {{0.0104494, 0.3040412, -0.0080597475},
     {0.032839425, 0.99595374, 0.08238431},
     {-1.303785, -1.3006663, -1.30242}},
    {{0.6492532, 1.0221939, 1.0795956},
     {0.89857954, 0.33443078, 1.1451643},
     {-0.06428719, -0.41321248, -0.17196804}},
    {{0.7253435, -1.3041222, -1.30281},
     {0.32399884, -1.3035583, -1.3021483},
     {1.3047397, -1.3027282, -1.3018221}},
    {{0.014417037, -1.3030362, -1.2677255},
     {1.3026127, 0.5835383, -1.2589004},
     {1.3029587, -0.05254516, 0.041784823}},
    {{0.12187607, -1.3030927, -1.3023025},
     {1.303708, 1.3019764, -0.7285198},
     {1.3021827, 0.49378806, 0.32998815}},
    {{0.023651691, -1.3026735, -1.2663825},
     {0.9439716, 1.3025961, -1.1843871},
     {1.3008727, -0.00088534725, 0.3683563}},
    {{1.0930836, -0.8510517, -1.0748706},
     {1.3040899, 1.3019493, 0.029017136},
     {1.3052828, 0.0591574, -0.27843133}},
    {{-0.0010386871, -0.8754213, -1.3004893},
     {0.23103766, 1.3021935, -0.98618054},
     {0.63875085, -0.0316649, -0.45194536}},
    {{0.028859746, -0.5420054, -1.3008039},
     {1.0291843, 1.3013251, -1.0720876},
     {0.66998607, -0.027013298, -0.83494216}},
    {{1.0238258, -0.06383473, -0.8438028},
     {1.3059795, 1.3054348, -0.8610219},
     {0.109520674, -0.05314749, -0.73707426}},
    {{1.3031741, 0.03308172, -0.098576695},
     {1.3025753, 1.3012599, -0.11131604},
     {1.3026663, 1.0048393, 0.09252721}},
    {{1.1254144, 0.094802216, -0.42309192},
     {1.3023617, 1.3004801, -0.24082299},
     {0.3632336, -0.17096703, -0.31538367}},
    {{1.0533075, -0.012479662, -0.2570887},
     {1.3055812, 1.3036877, 0.09218506},
     {0.048131477, -0.03801878, -0.46218485}},
    {{1.3004984, -0.2653206, -0.100070156},
     {1.304094, 1.303008, -0.070402876},
     {0.5534485, -0.15960185, -0.79010093}},
    {{1.3033215, 0.0016578122, -0.00026035568},
     {1.0514472, 1.3018208, -0.251847},
     {0.41405237, 0.0145038, -0.109116174}},
    {{1.3032813, -0.3261748, -0.43670532},
     {1.3033123, 1.3020816, 0.026318766},
     {-0.0060426816, -0.00068725925, -0.25135264}},
    {{1.24155, -0.4656243, -1.1862247},
     {1.3028771, 1.3051537, -0.0007760428},
     {0.20119368, 0.13060783, -0.77612555}},
    {{0.2465137, 0.0060596354, -1.0836443},
     {1.149997, 1.3020629, -0.39011398},
     {0.0001916393, -0.32363686, -0.18909453}},
    {{-0.022296654, -0.39240542, -1.3039874},
     {0.4326161, 1.3028886, -0.51427233},
     {0.13650733, -0.060678083, -0.31861216}},
    {{0.97707546, 0.08179357, -0.6677302},
     {1.3007871, 1.3034127, -0.42895174},
     {0.6456786, 7.978415e-05, -1.0327204}},
    {{0.76658756, -0.24413702, -0.8292836},
     {0.41490868, 1.3049841, -0.70137763},
     {0.39810574, -0.0012460887, -0.48181832}},
    {{0.029581476, -0.85237813, -1.1499202},
     {0.60693955, 1.305617, -0.0914691},
     {0.13212195, -0.63752717, -0.9068136}},
    {{0.063493386, -0.8992087, -1.3015225},
     {0.22105898, 0.79492867, -0.8987375},
     {0.6124459, 4.6820996e-06, -0.63328236}},
    {{0.007917071, -0.7780163, -0.96210027},
     {4.9650345e-05, 1.301591, -0.344572},
     {0.09567878, -0.9322732, -0.39824313}},
    {{-0.041615833, -0.089675486, -0.97561353},
     {0.35841566, 1.0635855, -0.49538183},
     {-5.798799e-06, -0.64021844, -0.425826}},
    {{-0.04975827, -0.699954, -0.7855677},
     {-0.0136041045, 1.3010464, -0.20935349},
     {-0.15748696, -0.104175396, -0.25451702}},
    {{0.047196973, -0.739197, -0.7522368},
     {0.54345244, 1.3014389, 0.3163473},
     {0.2009801, 0.49551016, 0.22180505}},
    {{-0.016225856, -0.7505338, -0.6310075},
     {-0.01006062, 1.3019257, 0.17694946},
     {-0.012757012, 0.19045432, -0.17114928}},
    {{0.44700828, 3.6158206e-05, -0.18003777},
     {0.12501664, 1.3002306, 0.010206982},
     {-0.28092867, -0.0042480286, -0.31835595}},
    {{0.16165468, -0.32937714, -0.1041708},
     {-0.44074476, 1.3012164, -0.082750216},
     {-0.10189808, 0.57480067, -0.0003212124}},
    {{-0.18180415, -0.6835936, -0.36936295},
     {0.013659558, 1.3046027, 0.123138174},
     {-0.14535664, -0.2580157, 0.041977603}},
    {{0.32871857, -0.35703796, -0.5389263},
     {0.6665944, 1.3027184, 0.3973995},
     {-0.42550975, -0.38164392, -0.21611078}},
    {{0.47604814, 0.15243223, -0.5412128},
     {1.3021733, 1.3024098, 0.5367232},
     {-0.04156509, 0.10536467, -0.76790583}},
    {{1.1709697, 0.6649726, 0.45713043},
     {0.41936046, 0.36369842, 0.30571258},
     {0.0016470783, -0.32789305, -0.61832803}},
    {{-1.0791017, -1.3017278, -1.3046722},
     {-0.79101336, -1.3023762, -1.3029166},
     {0.06847838, -1.3026814, -1.3022475}},
    {{-0.8247045, -1.3047767, -1.3022468},
     {1.3026279, 1.0272613, -0.3272267},
     {1.3026683, 0.99162245, 0.98531806}},
    {{-1.3041137, -1.3023062, -1.3063631},
     {0.9003397, 1.3045329, -0.123706646},
     {1.3003986, 1.2207811, 1.3022182}},
    {{-1.304466, -1.3018383, -1.3050004},
     {0.07587825, 1.3026899, -0.0016971104},
     {1.3002185, 1.3034827, 1.3062067}},
    {{-1.3026265, -1.3015609, -0.74109256},
     {-0.039080866, 1.3035239, -0.02927259},
     {1.3017462, 0.91937214, 1.3019321}},
    {{-1.1878974, -1.3061982, -1.3008984},
     {-0.036404353, 1.1203301, 0.00516616},
     {0.58621377, -0.066108435, 0.66692096}},
    {{-0.24558854, -1.2612295, -0.22975956},
     {0.64185274, 1.3044338, 0.58631617},
     {0.33937335, 0.23537786, 0.49667355}},
    {{-0.7766456, -1.3033788, -1.1547998},
     {-0.069345646, 1.3005106, 0.521658},
     {0.65175, 0.7399628, 1.1699142}},
    {{-0.19787155, -1.3068432, -1.0017631},
     {-0.375809, 1.3014235, 0.20523596},
     {0.74240136, 1.0417712, 0.8706797}},
    {{-0.3558864, -0.87678385, -0.47896227},
     {-0.30001804, 1.3016429, -1.8947192e-07},
     {-0.055250965, 1.3013567, 0.72937834}},
    {{-0.17486452, -0.26376975, -0.060549963},
     {-0.0049551004, 1.3006834, 0.40973443},
     {0.56103873, 1.302784, 0.93226266}},
    {{-0.85694873, -1.1243187, -0.59759665},
     {0.052694768, 1.3024602, 0.89920884},
     {0.08285298, 1.3026668, 0.8297265}},
    {{-0.3483154, -0.737418, -0.5272587},
     {0.1070583, 1.3039297, 0.008029},
     {-0.049235236, 0.80510426, -0.08415829}},
    {{-0.88561463, -0.8450386, 0.00020145519},
     {-0.00011820302, 1.3033515, 0.008638408},
     {-0.00063941005, 1.3060985, 0.40159327}},
    {{-0.38080588, -1.7055635e-07, -0.008017459},
     {0.3557648, 1.3014766, 0.10053054},
     {0.8436179, 1.300644, 0.8676861}},
    {{-0.013987922, -1.0562193, -1.2460349},
     {-0.0048643243, 1.3033198, -0.21822621},
     {0.055593777, 1.2600679, 0.4405387}},
    {{-0.11282568, -1.2603724, -1.0480919},
     {0.09489311, 1.3022329, 0.1810076},
     {-0.11303169, 1.3053656, -0.016679062}},
    {{0.00015930376, -0.024764925, -0.00017259782},
     {-0.015440307, 1.3021675, 0.21912661},
     {0.2498785, 0.9584414, 0.4976516}},
    {{-0.10770132, -0.1316977, -0.49946445},
     {0.20466045, 1.3035827, -5.215689e-07},
     {0.50758713, 1.3044854, 0.095794216}},
    {{-0.32574186, -0.076072544, -0.9577154},
     {0.6426715, 1.3035835, 0.63042533},
     {0.17502306, 1.1769483, 0.03424049}},
    {{-0.6246811, -0.9327938, -0.9999415},
     {0.6421961, 1.3032581, 0.20529738},
     {-0.005463177, 1.3026209, 0.8390017}},
    {{-0.8884868, -0.84754145, -1.0289074},
     {0.6674769, 1.3023998, 0.1346533},
     {-0.05275194, 1.3020442, 1.3024236}},
    {{-0.5513121, -1.1286423, -1.193249},
     {0.6119491, 1.3012642, 0.61403906},
     {0.67448485, 1.301368, 1.1341579}},
    {{-0.7961025, -1.1969216, -1.1885808},
     {0.64754194, 1.3031046, 0.29779744},
     {1.302518, 1.3037152, 1.3027357}},
    {{0.119811036, -0.47831422, -0.3534734},
     {1.3015922, 1.3031465, 1.1536512},
     {1.3045299, 1.3014684, 1.3022532}},
    {{-0.5289666, -1.0069219, -1.3032588},
     {0.75664806, 1.3033736, 1.3021015},
     {-0.054106954, 1.1852503, 0.82518274}},
    {{-1.3026406, -1.3017833, -1.3022144},
     {0.3524966, 1.3028826, -0.41939014},
     {-0.0020481995, 0.38538635, 0.06873965}},
    {{-1.3032447, -1.3037179, -1.3053771},
     {0.2443029, 1.3018801, -0.42680854},
     {0.9863148, 1.0051223, 0.17063613}},
    {{-1.09072, -1.3061911, -1.3040146},
     {1.254615, 1.303921, -0.08354143},
     {1.3051128, 1.2927023, 0.8815827}},
    {{-0.22862093, -1.3022081, -1.124217},
     {1.303727, 1.3007307, 1.2751861},
     {1.3033113, 1.3013539, 0.42908427}},
    {{-0.03443334, -0.9405323, -1.3015811},
     {1.3058459, 1.3030558, 0.78829044},
     {1.3016462, 1.3030026, 1.1349274}},
    {{0.8635908, -0.0015866692, 0.44366735},
     {1.2447075, 0.3292488, 1.3038964},
     {1.3038394, 1.0825433, 1.3022199}}},
   {{{-0.43545234, -0.4954623, -1.3015144},
     {0.4007444, -0.5871867, -1.3025471},
     {0.13935678, 0.571935, 1.1018473}},
    {{-0.064016335, 0.5745904, -1.3046274},
     {0.958796, 1.3004266, -1.3016412},
     {0.7796038, 1.3058894, 1.3053049}},
    {{-1.3046498, 0.55898535, -1.3015485},
     {1.0070941, 1.3015939, -1.305772},
     {0.60464376, 1.3040689, 1.3039258}},
    {{-1.3015792, 0.016834708, -1.3035567},
     {1.1158646, 1.3033476, -1.3024789},
     {0.97115445, 1.3038833, 1.3065208}},
    {{-1.3042359, 1.304165, -1.3023089},
     {0.3061188, 1.3028753, -1.305987},
     {-1.2352577, 1.3050789, 1.3030467}},
    {{-1.3039329, 0.1647478, -1.3046664},
     {1.3039318, 1.3021512, -1.3032187},
     {-0.22448684, 1.3033442, 1.3046418}},
    {{-1.301777, 0.2937078, -1.3027275},
     {0.8217792, 1.3023343, -1.3013997},
     {0.7859292, 1.300328, 1.3039201}},
    {{-0.7998434, 0.07707367, -1.303571},
     {0.26980355, 1.3010423, -1.3057035},
     {0.08797872, 1.3051021, 1.3049898}},
    {{-1.3039386, 1.0081334, -1.3001646},
     {-0.21142462, 1.3023, -1.3012509},
     {0.4332754, 1.3048229, 1.3007711}},
    {{-1.3048861, 0.002747656, -1.2967912},
     {0.0054346123, 1.3014294, -1.3016526},
     {-0.0006022569, 1.3046306, 1.3032367}},
    {{-1.3051739, -0.042210765, -1.1124698},
     {-0.03955131, 1.3010312, -1.3031358},
     {-0.31248528, 0.9872181, 0.6820314}},
    {{-1.3047845, -8.714598e-07, -0.7303775},
     {0.2019689, 1.2676473, -1.3028015},
     {0.007815569, 0.42452824, 1.3048074}},
    {{-1.1826866, 0.37667373, -1.0771738},
     {-0.012927991, 1.302134, -1.3044627},
     {0.013846333, 1.3034252, 1.0440147}},
    {{-0.6497103, 0.119953975, -0.71603256},
     {0.28414938, 1.3008035, -1.0469934},
     {-0.32446036, 1.301699, 1.1203269}},
    {{-0.22128062, 0.5414972, -1.304707},
     {0.48431137, 1.3029497, -1.3035301},
     {-0.074585415, 1.3009367, 1.1973498}},
    {{-0.24991138, -0.0030252952, -1.3005055},
     {0.0004224846, 1.1962062, -1.3026714},
     {0.4127629, 0.5945393, 0.20708849}},
    {{-0.12535872, 0.1921993, -1.3002758},
     {0.531532, 0.65802735, -1.3037635},
     {-0.012330774, 0.92318684, 0.3100937}},
    {{-0.68915725, -0.057520136, -1.302197},
     {0.8993406, 1.0985997, -1.3046923},
     {0.21284425, 0.48420498, 0.5354623}},
    {{-1.3032675, 9.141418e-05, -1.302941},
     {0.5659861, 1.1129006, -1.304601},
     {-0.16730444, -0.005430378, -2.4272167e-06}},
    {{-0.95580566, -0.026306907, -1.3056929},
     {0.453149, 1.2251153, -1.3051667},
     {-0.105435684, 0.32951057, 0.004724937}},
    {{-0.70119095, 0.035898402, -1.3023634},
     {-0.031789966, 1.0761279, -1.3020818},
     {-1.7706803e-05, 0.36369836, 0.04020039}},
    {{-1.1303755, 0.02300139, -1.3041219},
     {0.610935, 1.0718595, -1.3066031},
     {-0.13343227, 0.4686703, 0.38330415}},
    {{-1.3053557, 0.18604493, -1.3067392},
     {-0.04577806, 1.0309193, -1.3032533},
     {-0.00041413223, 1.3013333, 1.3036442}},
    {{-1.3058015, -0.015095136, -1.3003712},
     {0.68471384, 1.061891, -1.3014339},
     {-1.9931387e-07, 1.3024563, 1.3034283}},
    {{-1.1318942, 0.0018795828, -1.3030065},
     {1.3030562, 1.3033233, -1.3044972},
     {0.77121556, 1.3003149, 0.5630196}},
    {{-1.3061318, -0.23295078, -1.3025023},
     {1.3034079, 1.3016889, -1.3028829},
     {0.07703337, 1.3018277, 1.0127916}},
    {{-1.3037727, -0.61538875, -1.3021282},
     {1.3036269, 1.3024776, -1.3032497},
     {0.099968046, 1.3022858, 0.8521413}},
    {{-1.2214957, 0.13281853, -1.3007267},
     {1.3034387, 1.3020775, -1.3013003},
     {-0.02537703, 1.3040159, 1.3041569}},
    {{-0.87836474, -0.25089076, -1.3040832},
     {1.3032637, 1.3036976, -1.3022661},
     {1.3014568, 1.3023835, 1.3033342}},
    {{-1.3030611, 0.24793844, -1.3030056},
     {0.9345766, 1.3025008, -1.3074421},
     {-0.819887, 1.3018916, 0.97042674}},
    {{-0.2723399, 0.63002986, -1.3041842},
     {0.38756245, 1.3042291, -1.303489},
     {-0.26179856, 1.3039217, 1.1412052}},
    {{0.7296369, 1.302566, -1.3017019},
     {-0.1448844, 1.304982, -1.3007941},
     {-0.29815736, 1.252409, -0.1645369}},
    {{0.024765715, 0.17286912, -1.3076162},
     {0.7121548, -0.21167131, -1.3023508},
     {-1.3019457, -0.44226784, 0.058840957}},
    {{0.08673255, 1.3064594, -1.3011589},
     {1.3006915, 1.3042866, -1.3038073},
     {-0.8454107, -0.38612425, 1.3002851}},
    {{0.045068584, 1.3043616, -1.3054507},
     {0.98905885, 1.3019466, -1.3035729},
     {-1.3020437, -0.057472795, 0.4116904}},
    {{-0.005981479, 1.0271757, -0.97805035},
     {-0.15532932, 0.43038502, -1.3035389},
     {-0.5387334, -1.2730112, 1.0466737}},
    {{-0.43880174, 1.3061092, -0.00089538377},
     {-0.006692445, 0.43344975, -1.3088759},
     {-1.3033886, -0.54471284, 0.59125406}},
    {{-0.2208179, 1.3027745, -0.7037764},
     {-0.5820624, 0.33235335, -1.306617},
     {-1.3024449, -0.2876484, 0.2497419}},
    {{0.019376183, 1.306528, -0.6303894},
     {0.3341289, 0.1361288, -1.3023973},
     {-1.3013854, 0.023684315, -0.01441307}},
    {{-0.0041041994, 0.6463577, -0.7105565},
     {-0.23171115, -0.049359206, -1.3046895},
     {-1.3029469, 0.0061210846, 1.0070317}},
    {{-0.095339105, 0.9724222, 0.21247229},
     {-0.20384975, 0.6209347, -1.3081583},
     {-1.208353, -0.18141113, 1.1095444}},
    {{-0.03523864, 1.3056893, -0.18235753},
     {-0.55696464, 0.80139637, -1.3038325},
     {-1.3024307, -0.031323314, 1.2272991}},
    {{0.04161801, 0.93101156, 0.013698956},
     {-0.48055556, -0.010164651, -1.3017447},
     {-0.9969103, 0.009000094, 0.50568855}},
    {{-0.21528423, 1.3025545, -0.06497636},
     {-0.3306359, 0.25353694, -1.3029796},
     {-1.3038783, -0.05278339, 0.19923395}},
    {{-0.42985496, 1.1748487, 0.013418751},
     {-0.8785145, 0.10804206, -1.3030336},
     {-1.3036283, -0.14375937, 0.2278299}},
    {{0.3316327, 0.4924342, -0.124355316},
     {-0.82430655, -0.07594684, -1.3026098},
     {-0.59629464, 2.724976e-07, 3.200673e-05}},
    {{-0.07230945, 0.7978749, 0.009484978},
     {-2.5052702e-06, 0.09306206, -1.3031608},
     {-0.33070022, -0.00033115383, -0.35376382}},
    {{-0.12035527, 0.29076216, -0.41512507},
     {-0.14485142, 0.005211528, -1.3015754},
     {-0.53891206, -0.017888203, 0.12497908}},
    {{0.013785443, 0.40495473, 0.0054453746},
     {-0.023666598, 0.6922131, -1.3030994},
     {0.0019687393, -0.13971841, 0.4535462}},
    {{-0.7523586, 0.008019695, -0.44685605},
     {-0.20618649, 0.24181877, -1.3030503},
     {-0.18158032, -0.25875747, 0.20805138}},
    {{-0.58718204, 1.2722455, -0.27815652},
     {-0.0001229125, 0.86680084, -1.3066131},
     {-1.0055158, -0.0082866745, 0.21733475}},
    {{-1.1050172, 0.67249894, 0.011808084},
     {-0.8182616, 0.6559857, -1.3034899},
     {-1.245401, 0.0007742631, 0.18904741}},
    {{-1.2977141e-05, 0.91670626, -0.9026172},
     {-0.18188977, 0.10175813, -1.3022614},
     {-0.429289, 0.29754034, -0.38168952}},
    {{-0.0017341833, 0.35276118, -0.61897707},
     {0.2416307, 0.17610537, -1.3029641},
     {-1.3011962, 0.35794577, 0.015177167}},
    {{0.3170451, 0.23812935, -0.4980796},
     {0.2741853, 0.38238838, -1.3014487},
     {-0.2772885, 0.009512731, 0.6220359}},
    {{0.011933907, 0.1196049, -0.9276727},
     {0.040618237, -0.3469853, -1.3006914},
     {-0.7506836, -0.005686554, -0.03211661}},
    {{-0.4112748, 0.21817115, -1.3038185},
     {-0.0019588314, 0.35361096, -1.3026029},
     {-1.3011543, -0.43768132, 0.021113671}},
    {{0.4874985, 0.22982012, -1.3052889},
     {0.0033528297, -0.22300558, -1.3046958},
     {-1.104441, 0.18640634, 0.000118553064}},
    {{-0.503139, 0.30788985, -1.3022926},
     {0.7520365, 0.18666759, -1.3043481},
     {-0.26553437, 0.46047917, -0.7402334}},
    {{0.06190077, 0.7171349, -1.3039118},
     {1.2333878, 0.5280632, -1.3035126},
     {-0.87940097, 0.028397629, 0.002753709}},
    {{-0.38965982, 0.60399294, -1.3025243},
     {1.3010929, 0.60517156, -1.3018281},
     {-0.6660387, 0.14001358, 0.2205755}},
    {{0.34404677, 1.3058707, -1.30427},
     {1.3011905, 1.3005848, -1.3022233},
     {-0.8620291, -0.027367644, 0.61369455}},
    {{1.3012424, 1.3025738, -1.2198527},
     {1.3046124, 1.3030616, -1.3076005},
     {-0.6386181, 1.2038115, -0.11312738}},
    {{1.3024544, 1.3027116, -1.2787911},
     {0.6430299, 1.3037015, -1.3040395},
     {-0.9593262, 0.7134556, -0.008009449}},
    {{-0.49539778, 0.0067936, -1.3044809},
     {1.3041073, -0.36594293, -1.3021315},
     {-1.3055196, -1.3046916, 0.2376853}},
    {{0.36777544, 1.3008206, -0.16241062},
     {1.3019121, 1.0323105, -1.3051335},
     {-0.46440443, -1.3035493, 0.25604033}},
    {{1.3039885, 1.3075081, -0.122512504},
     {1.3034097, 1.157157, -1.3042245},
     {-1.0176907, -0.24508215, -0.052460566}},
    {{1.3021816, 1.3022525, -0.34158397},
     {1.0824327, 1.3057822, -1.305349},
     {-1.302553, -0.01696108, -0.74522436}},
    {{0.5126349, 1.2342671, 0.031921487},
     {0.40945557, 0.89860713, -1.3030552},
     {-1.3013785, -1.1704725, -0.032689683}},
    {{0.091392055, 0.40720904, -0.4687253},
     {0.76314133, 0.3801121, -1.302032},
     {-0.8385503, 0.0021246506, -0.30133194}},
    {{0.80066633, 1.3027965, -0.07531},
     {0.23021492, 0.39290932, -1.3030297},
     {-0.25670147, -0.79580355, -0.023714669}},
    {{1.0814099, 1.3017945, -0.10864688},
     {1.3016366, 0.7883182, -1.3021629},
     {-0.8013106, 0.24165869, 2.5181278e-06}},
    {{0.3897858, 1.3020164, 0.4456739},
     {1.3018671, 0.96016437, -1.3031349},
     {-0.0037308494, 0.08415831, 0.040004402}},
    {{0.014027935, 1.017664, -0.44710132},
     {0.7539773, 0.46042505, -1.301645},
     {-0.1855075, -0.07358197, -0.25614664}},
    {{-0.00064960547, 0.43814108, -0.22552748},
     {0.01045016, 6.254321e-05, -1.3021417},
     {-0.0011866422, 0.27770218, -0.08544558}},
    {{0.08638976, 0.4885028, 0.22610629},
     {0.025729796, 0.11869636, -1.3028123},
     {0.0092860935, -0.015701124, 0.029582916}},
    {{-0.0006764007, 0.4760547, -0.22900595},
     {-0.021992551, -0.0039289906, -1.3050411},
     {-0.17558758, 0.654509, -0.47089356}},
    {{0.76970476, 0.24015477, -0.33980456},
     {0.2725477, 0.009915707, -1.3060167},
     {-0.18868782, 0.25254494, -0.44084495}},
    {{-0.012396302, -0.0070555657, -0.29866937},
     {0.4157603, 0.021539208, -1.3032483},
     {0.24389105, 0.73381, -0.22913337}},
    {{0.013293447, 0.36794978, 0.0086885},
     {1.3044789, 0.13398959, -1.3019643},
     {0.09736689, 0.020618102, 0.18957056}},
    {{0.33593547, -0.00040111376, -0.032928787},
     {0.51727057, 0.62636304, -1.3009119},
     {-0.027144715, 1.208161, -0.7037409}},
    {{-0.019876244, 0.016908685, -0.4734122},
     {0.030152144, -0.2055367, -1.3015636},
     {-0.013588856, 0.00017846496, 0.00023633827}},
    {{0.0061243423, 0.86966085, 0.23484136},
     {0.2918102, 1.0313196, -1.3037854},
     {-0.048037734, -0.15074472, -0.09103227}},
    {{0.042253356, 1.287807, -0.10373184},
     {0.45137605, 1.1438372, -1.3046174},
     {0.14616714, 0.077629015, -0.38437}},
    {{0.054910667, 0.9345089, 0.11587625},
     {0.052180246, 0.4385439, -1.3009604},
     {-0.2017266, -0.40732253, -0.21863623}},
    {{-0.13614689, 0.010705398, 0.1488467},
     {0.30566028, 0.4193221, -1.3048875},
     {-0.26599047, -0.08142417, 9.094861e-05}},
    {{1.9742615e-06, 0.7921592, -0.41173866},
     {0.4280343, 0.75825065, -1.0788441},
     {-0.5584908, -0.0014832183, -5.4061442e-05}},
    {{-0.79277277, 0.19436184, -0.03705318},
     {0.31471533, 0.72069275, -1.0577215},
     {-0.32280162, 0.06225225, -0.022891058}},
    {{-1.1385005, 0.19240057, -0.5000283},
     {0.49316454, 1.1677046, -1.3035986},
